{"learner":{"attributes":{},"feature_names":[],"feature_types":[],"gradient_booster":{"model":{"gbtree_model_param":{"num_parallel_tree":"1","num_trees":"50"},"iteration_indptr":[0,1,2,3,4,5,6,7,8,9,10,11,12,13,14,15,16,17,18,19,20,21,22,23,24,25,26,27,28,29,30,31,32,33,34,35,36,37,38,39,40,41,42,43,44,45,46,47,48,49,50],"tree_info":[0,0,0,0,0,0,0,0,0,0,0,0,0,0,0,0,0,0,0,0,0,0,0,0,0,0,0,0,0,0,0,0,0,0,0,0,0,0,0,0,0,0,0,0,0,0,0,0,0,0],"trees":[{"base_weights":[-1.05242506E-1,2.3430486E0,-8.0821025E-1,1.2791328E0,2.9528532E0,-2.0660391E-2,-1.2076553E0,2.187283E0,2.76418E-2,3.236965E0,1.0662413E0,1.6155477E0,-4.4473952E-1,-1.2389231E0,1.1379254E0,7.117018E-1,-1.8320166E-1,-5.835833E-2,7.513331E-1,1.0018123E0,4.71411E-1,6.5661705E-1,-1.3207279E-1,2.6483783E-1,8.589527E-1,-2.0623718E-1,4.1704497E-1,-3.79176E-1,2.9409071E-3,6.5541196E-1,-1.1644311E-1],"categories":[],"categories_nodes":[],"categories_segments":[],"categories_sizes":[],"default_left":[0,0,0,0,0,0,0,0,0,0,0,0,0,0,0,0,0,0,0,0,0,0,0,0,0,0,0,0,0,0,0],"id":0,"left_children":[1,3,5,7,9,11,13,15,17,19,21,23,25,27,29,-1,-1,-1,-1,-1,-1,-1,-1,-1,-1,-1,-1,-1,-1,-1,-1],"loss_changes":[2.141601E3,1.7631995E2,3.040664E2,1.1689276E2,9.071997E1,2.2714062E2,4.8446106E1,3.231787E1,2.4855556E1,2.07146E1,4.2369667E1,5.907373E1,1.167181E2,1.9782837E1,1.5158214E1,0E0,0E0,0E0,0E0,0E0,0E0,0E0,0E0,0E0,0E0,0E0,0E0,0E0,0E0,0E0,0E0],"parents":[2147483647,0,0,1,1,2,2,3,3,4,4,5,5,6,6,7,7,8,8,9,9,10,10,11,11,12,12,13,13,14,14],"right_children":[2,4,6,8,10,12,14,16,18,20,22,24,26,28,30,-1,-1,-1,-1,-1,-1,-1,-1,-1,-1,-1,-1,-1,-1,-1,-1],"split_conditions":[-6.902026E-1,6.127053E-1,-3.2322815E-1,-8.609945E-2,8.4900004E-1,-8.934907E-1,3.7055602E0,4.280616E0,1.0355021E0,4.280616E0,-8.2792425E-1,1.756874E-1,9.144553E-1,5.776836E-1,6.2274086E-1,7.117018E-1,-1.8320166E-1,-5.835833E-2,7.513331E-1,1.0018123E0,4.71411E-1,6.5661705E-1,-1.3207279E-1,2.6483783E-1,8.589527E-1,-2.0623718E-1,4.1704497E-1,-3.79176E-1,2.9409071E-3,6.5541196E-1,-1.1644311E-1],"split_indices":[32,1,32,30,30,30,23,16,23,16,32,1,28,25,32,0,0,0,0,0,0,0,0,0,0,0,0,0,0,0,0],"split_type":[0,0,0,0,0,0,0,0,0,0,0,0,0,0,0,0,0,0,0,0,0,0,0,0,0,0,0,0,0,0,0],"sum_hessian":[1.2422427E3,2.7659308E2,9.6564954E2,1.0190272E2,1.7469037E2,3.253123E2,6.403373E2,5.8618324E1,4.328439E1,1.5120422E2,2.3486149E1,6.638234E1,2.5892993E2,6.3237915E2,7.958117E0,5.5124516E1,3.4938073E0,4.0566986E1,2.7174058E0,1.4149919E2,9.705021E0,1.3198828E1,1.0287322E1,4.289619E1,2.3486149E1,2.2923259E2,2.9697363E1,6.199567E2,1.2422426E1,4.464309E0,3.4938073E0],"tree_param":{"num_deleted":"0","num_feature":"33","num_nodes":"31","size_leaf_vector":"1"}},{"base_weights":[-1.270835E-1,1.0963837E0,-8.444703E-1,1.3893903E0,2.0186934E-1,-1.0672098E0,-1.9792959E-1,5.511419E-1,1.6630609E0,1.3333576E0,-4.699499E-1,-1.118E0,2.3026147E-1,8.9879817E-1,-7.278139E-1,-8.3365776E-2,3.214257E-1,5.2005315E-1,1.4368923E-1,2.3441495E-1,6.0409087E-1,-1.9195464E-1,3.9519557E-1,-1.8927997E-1,-3.580789E-1,3.74245E-1,-1.6290812E-1,1.1270447E-1,5.085607E-1,-2.7391818E-1,2.1491496E-1],"categories":[],"categories_nodes":[],"categories_segments":[],"categories_sizes":[],"default_left":[0,0,0,0,0,0,0,0,0,0,0,0,0,0,0,0,0,0,0,0,0,0,0,0,0,0,0,0,0,0,0],"id":1,"left_children":[1,3,5,7,9,11,13,15,17,19,21,23,25,27,29,-1,-1,-1,-1,-1,-1,-1,-1,-1,-1,-1,-1,-1,-1,-1,-1],"loss_changes":[1.0378501E3,1.1428638E2,1.07119385E2,7.457825E1,8.3500725E1,3.677179E1,1.1234833E2,3.5878983E1,1.9824036E1,1.3775658E1,2.183934E1,1.888684E1,1.7748821E1,2.5633892E1,3.5471016E1,0E0,0E0,0E0,0E0,0E0,0E0,0E0,0E0,0E0,0E0,0E0,0E0,0E0,0E0,0E0,0E0],"parents":[2147483647,0,0,1,1,2,2,3,3,4,4,5,5,6,6,7,7,8,8,9,9,10,10,11,11,12,12,13,13,14,14],"right_children":[2,4,6,8,10,12,14,16,18,20,22,24,26,28,30,-1,-1,-1,-1,-1,-1,-1,-1,-1,-1,-1,-1,-1,-1,-1,-1],"split_conditions":[-5.808905E-1,3.6539283E-1,-1.5185189E-1,1.9098236E-1,-8.3420074E-1,2.1837692E0,-5.978069E-1,-3.4708083E-1,4.280616E0,1.8320664E0,1.2695228E0,-1.0074452E0,-9.832652E-2,-1.04330264E-1,8.788908E-1,-8.3365776E-2,3.214257E-1,5.2005315E-1,1.4368923E-1,2.3441495E-1,6.0409087E-1,-1.9195464E-1,3.9519557E-1,-1.8927997E-1,-3.580789E-1,3.74245E-1,-1.6290812E-1,1.1270447E-1,5.085607E-1,-2.7391818E-1,2.1491496E-1],"split_indices":[32,30,1,25,32,23,30,20,16,1,28,30,32,23,28,0,0,0,0,0,0,0,0,0,0,0,0,0,0,0,0],"split_type":[0,0,0,0,0,0,0,0,0,0,0,0,0,0,0,0,0,0,0,0,0,0,0,0,0,0,0,0,0,0,0],"sum_hessian":[1.1804119E3,4.3611365E2,7.442982E2,3.2809106E2,1.0802257E2,5.530994E2,1.9119876E2,8.1493065E1,2.46598E2,3.987678E1,6.814578E1,5.3239685E2,2.0702612E1,6.205801E1,1.2914075E2,3.160247E1,4.98906E1,2.3231224E2,1.4285761E1,2.3200579E1,1.6676205E1,6.281641E1,5.3293715E0,7.278548E1,4.5961136E2,8.67624E0,1.2026372E1,3.8343727E1,2.3714285E1,1.1478508E2,1.4355674E1],"tree_param":{"num_deleted":"0","num_feature":"33","num_nodes":"31","size_leaf_vector":"1"}},{"base_weights":[-1.1914059E-1,7.1301323E-1,-8.047794E-1,3.976626E-1,1.3545835E0,-3.969494E-1,-1.104872E0,9.781863E-1,-8.069113E-2,4.7406995E-1,8.3160007E-1,4.0929705E-1,-8.644908E-1,-1.1482353E0,-1.8492389E-1,3.3150777E-1,-2.5941178E-1,-1.3802965E-1,2.6867285E-1,4.2014655E-1,7.963517E-2,2.83835E-2,5.282528E-1,-3.0891973E-1,5.922285E-2,-3.4740415E-1,-1.18135154E-1,3.3531773E-1,-2.666791E-1],"categories":[],"categories_nodes":[],"categories_segments":[],"categories_sizes":[],"default_left":[0,0,0,0,0,0,0,0,0,0,0,0,0,0,0,0,0,0,0,0,0,0,0,0,0,0,0,0,0],"id":2,"left_children":[1,3,5,7,9,11,13,15,17,-1,19,21,23,25,27,-1,-1,-1,-1,-1,-1,-1,-1,-1,-1,-1,-1,-1,-1],"loss_changes":[6.0801624E2,9.687178E1,7.105734E1,9.011266E1,1.7361237E1,9.428994E1,1.3190643E1,3.5210236E1,6.659354E1,0E0,1.5670872E1,3.9024315E1,2.793663E1,1.9096375E0,1.5956682E1,0E0,0E0,0E0,0E0,0E0,0E0,0E0,0E0,0E0,0E0,0E0,0E0,0E0,0E0],"parents":[2147483647,0,0,1,1,2,2,3,3,4,4,5,5,6,6,7,7,8,8,10,10,11,11,12,12,13,13,14,14],"right_children":[2,4,6,8,10,12,14,16,18,-1,20,22,24,26,28,-1,-1,-1,-1,-1,-1,-1,-1,-1,-1,-1,-1,-1,-1],"split_conditions":[-5.2298874E-1,1.108897E0,-1.1307416E-1,-4.2577934E-1,2.4536267E-1,-2.3709863E-1,1.872483E0,4.280616E0,2.3142664E-1,4.7406995E-1,-8.881389E-1,7.8493905E-1,9.943938E-1,5.991876E-1,-7.065231E-1,3.3150777E-1,-2.5941178E-1,-1.3802965E-1,2.6867285E-1,4.2014655E-1,7.963517E-2,2.83835E-2,5.282528E-1,-3.0891973E-1,5.922285E-2,-3.4740415E-1,-1.18135154E-1,3.3531773E-1,-2.666791E-1],"split_indices":[32,1,32,30,30,7,23,16,28,0,32,28,28,25,30,0,0,0,0,0,0,0,0,0,0,0,0,0,0],"split_type":[0,0,0,0,0,0,0,0,0,0,0,0,0,0,0,0,0,0,0,0,0,0,0,0,0,0,0,0,0],"sum_hessian":[1.0636482E3,4.8046823E2,5.8318E2,3.2321725E2,1.5725095E2,2.4819806E2,3.349819E2,1.4554315E2,1.7767412E2,1.0844084E2,4.881011E1,9.1146355E1,1.5705171E2,3.1966577E2,1.5316138E1,1.365456E2,8.997552E0,1.2832988E2,4.9344242E1,2.361109E1,2.5199018E1,7.4800316E1,1.6346035E1,1.3593002E2,2.112168E1,3.1504752E2,4.618274E0,5.167274E0,1.0148865E1],"tree_param":{"num_deleted":"0","num_feature":"33","num_nodes":"29","size_leaf_vector":"1"}},{"base_weights":[-1.084458E-1,-8.080092E-1,4.5895532E-1,-9.3570596E-1,-3.7853003E-2,7.987409E-1,-9.971031E-2,-2.3925342E-1,-1.0196394E0,7.843698E-1,-5.9864527E-1,3.990386E-1,1.1475803E0,7.5515753E-1,-5.6282985E-1,1.8041776E-1,-2.55678E-1,-3.0896306E-1,2.0219825E-1,4.817304E-1,-1.4277473E-1,3.8896453E-1,-2.1848552E-1,2.5419694E-1,-7.5665094E-2,2.2945568E-1,3.894255E-1,1.0495109E-3,3.0791807E-1,-2.2629696E-1,8.9536965E-2],"categories":[],"categories_nodes":[],"categories_segments":[],"categories_sizes":[],"default_left":[0,0,0,0,0,0,0,0,0,0,0,0,0,0,0,0,0,0,0,0,0,0,0,0,0,0,0,0,0,0,0],"id":3,"left_children":[1,3,5,7,9,11,13,15,17,19,21,23,25,27,29,-1,-1,-1,-1,-1,-1,-1,-1,-1,-1,-1,-1,-1,-1,-1,-1],"loss_changes":[3.766001E2,4.1746674E1,9.9547714E1,2.1056122E1,2.881116E1,4.498796E1,7.9233574E1,2.1381527E1,6.327118E0,2.7012943E1,1.006176E1,4.5006508E1,9.001648E0,1.4343868E1,2.1614273E1,0E0,0E0,0E0,0E0,0E0,0E0,0E0,0E0,0E0,0E0,0E0,0E0,0E0,0E0,0E0,0E0],"parents":[2147483647,0,0,1,1,2,2,3,3,4,4,5,5,6,6,7,7,8,8,9,9,10,10,11,11,12,12,13,13,14,14],"right_children":[2,4,6,8,10,12,14,16,18,20,22,24,26,28,30,-1,-1,-1,-1,-1,-1,-1,-1,-1,-1,-1,-1,-1,-1,-1,-1],"split_conditions":[-1.372402E-1,8.788908E-1,2.5060419E-2,-1.1987286E0,-3.2469386E-1,4.7399908E-1,-7.954911E-1,-2.5468498E-1,2.968688E0,2.0495586E-2,-1.0891109E0,-3.8152188E-1,-7.054195E-1,-7.054195E-1,1.079972E0,1.8041776E-1,-2.55678E-1,-3.0896306E-1,2.0219825E-1,4.817304E-1,-1.4277473E-1,3.8896453E-1,-2.1848552E-1,2.5419694E-1,-7.5665094E-2,2.2945568E-1,3.894255E-1,1.0495109E-3,3.0791807E-1,-2.2629696E-1,8.9536965E-2],"split_indices":[1,28,30,30,30,25,32,32,15,32,6,6,20,20,25,0,0,0,0,0,0,0,0,0,0,0,0,0,0,0,0],"split_type":[0,0,0,0,0,0,0,0,0,0,0,0,0,0,0,0,0,0,0,0,0,0,0,0,0,0,0,0,0,0,0],"sum_hessian":[9.468406E2,4.2384595E2,5.229946E2,3.6338025E2,6.04657E1,3.2493588E2,1.9805875E2,3.9497025E1,3.2388324E2,2.435629E1,3.610941E1,1.5242746E2,1.725084E2,6.937308E1,1.2868567E2,1.666392E1,2.2833105E1,3.2232678E2,1.5564505E0,1.4579737E1,9.776554E0,1.7356027E0,3.4373806E1,9.0104195E1,6.232326E1,5.0406998E1,1.2210142E2,1.8663898E1,5.070918E1,1.0538024E2,2.3305433E1],"tree_param":{"num_deleted":"0","num_feature":"33","num_nodes":"31","size_leaf_vector":"1"}},{"base_weights":[-9.614809E-2,3.5761485E-1,-7.676564E-1,9.4013643E-1,1.5146448E-1,-3.239705E-1,-9.638023E-1,1.040714E0,1.4880927E-1,8.1083757E-1,-1.5893373E-1,1.577569E-1,-9.3624693E-1,-1.0122267E0,4.971988E-1,3.4504703E-1,1.8221736E-1,2.5511393E-1,-2.4113037E-1,2.9766718E-2,3.2849896E-1,-1.3409792E-1,1.3341223E-1,-1.331287E-1,3.2419124E-1,-3.1716722E-1,1.3517062E-1,-3.0813107E-1,1.0595337E-1,4.9110326E-1,-1.1272798E-1],"categories":[],"categories_nodes":[],"categories_segments":[],"categories_sizes":[],"default_left":[0,0,0,0,0,0,0,0,0,0,0,0,0,0,0,0,0,0,0,0,0,0,0,0,0,0,0,0,0,0,0],"id":4,"left_children":[1,3,5,7,9,11,13,15,17,19,21,23,25,27,29,-1,-1,-1,-1,-1,-1,-1,-1,-1,-1,-1,-1,-1,-1,-1,-1],"loss_changes":[2.5790817E2,6.0531136E1,2.9387573E1,1.034095E1,7.6751015E1,3.1449505E1,1.7210068E1,4.8422394E0,1.1401639E1,2.415487E1,4.4605705E1,3.3926548E1,8.340702E0,5.012329E0,8.8204155E0,0E0,0E0,0E0,0E0,0E0,0E0,0E0,0E0,0E0,0E0,0E0,0E0,0E0,0E0,0E0,0E0],"parents":[2147483647,0,0,1,1,2,2,3,3,4,4,5,5,6,6,7,7,8,8,9,9,10,10,11,11,12,12,13,13,14,14],"right_children":[2,4,6,8,10,12,14,16,18,20,22,24,26,28,30,-1,-1,-1,-1,-1,-1,-1,-1,-1,-1,-1,-1,-1,-1,-1,-1],"split_conditions":[-4.0067253E-1,-8.409635E-1,-6.382586E-1,2.9958408E0,-2.3709863E-1,6.0896378E-2,3.2654011E0,1.2174942E0,-8.993542E-1,-7.054195E-1,7.652749E-2,4.8904264E-1,2.3684492E0,1.238609E0,-1.5897858E-1,3.4504703E-1,1.8221736E-1,2.5511393E-1,-2.4113037E-1,2.9766718E-2,3.2849896E-1,-1.3409792E-1,1.3341223E-1,-1.331287E-1,3.2419124E-1,-3.1716722E-1,1.3517062E-1,-3.0813107E-1,1.0595337E-1,4.9110326E-1,-1.1272798E-1],"split_indices":[32,32,30,18,7,32,23,7,32,20,28,20,28,1,32,0,0,0,0,0,0,0,0,0,0,0,0,0,0,0,0],"split_type":[0,0,0,0,0,0,0,0,0,0,0,0,0,0,0,0,0,0,0,0,0,0,0,0,0,0,0,0,0,0,0],"sum_hessian":[8.445167E2,5.0424634E2,3.402704E2,1.308739E2,3.7337244E2,1.05125694E2,2.351447E2,1.15836E2,1.5037905E1,1.1899062E2,2.543818E2,5.9250713E1,4.587498E1,2.2789825E2,7.246452E0,9.115824E1,2.4677757E1,8.721689E0,6.3162155E0,3.4340748E1,8.464988E1,1.7238072E2,8.2001076E1,3.6185028E1,2.3065685E1,4.2412815E1,3.462166E0,2.2568704E2,2.2112076E0,2.763256E0,4.483196E0],"tree_param":{"num_deleted":"0","num_feature":"33","num_nodes":"31","size_leaf_vector":"1"}},{"base_weights":[-8.361329E-2,-6.852354E-1,2.7969187E-1,-8.481579E-1,-6.859838E-2,4.1933653E-1,-5.1498336E-1,-2.4567941E-1,-9.4965976E-1,4.9966192E-1,-6.4248E-1,2.4843952E-1,1.0048891E0,-6.9828117E-1,1.0571425E0,1.6305539E-1,-1.8700047E-1,-1.5482058E-1,-3.0486673E-1,-1.6498838E-1,2.6653644E-1,7.323821E-2,-2.4520427E-1,1.1860132E-3,2.4012561E-1,4.5727047E-1,2.581554E-1,-4.953006E-2,-2.8467962E-1,3.718325E-1,-1.059912E-2],"categories":[],"categories_nodes":[],"categories_segments":[],"categories_sizes":[],"default_left":[0,0,0,0,0,0,0,0,0,0,0,0,0,0,0,0,0,0,0,0,0,0,0,0,0,0,0,0,0,0,0],"id":5,"left_children":[1,3,5,7,9,11,13,15,17,19,21,23,25,27,29,-1,-1,-1,-1,-1,-1,-1,-1,-1,-1,-1,-1,-1,-1,-1,-1],"loss_changes":[1.6714368E2,2.8863373E1,5.31441E1,1.3686676E1,2.0296436E1,4.0399986E1,2.1409672E1,1.0522636E1,5.087799E0,1.3277895E1,4.992276E0,4.2610626E1,5.5446854E0,8.509523E0,1.614768E0,0E0,0E0,0E0,0E0,0E0,0E0,0E0,0E0,0E0,0E0,0E0,0E0,0E0,0E0,0E0,0E0],"parents":[2147483647,0,0,1,1,2,2,3,3,4,4,5,5,6,6,7,7,8,8,9,9,10,10,11,11,12,12,13,13,14,14],"right_children":[2,4,6,8,10,12,14,16,18,20,22,24,26,28,30,-1,-1,-1,-1,-1,-1,-1,-1,-1,-1,-1,-1,-1,-1,-1,-1],"split_conditions":[-1.6926573E-1,6.38156E-1,8.188765E-1,-1.1664692E0,-4.6127498E-1,1.1944705E0,2.2879837E0,-4.0067253E-1,-9.6215093E-1,-8.248657E-1,-9.4806737E-1,7.652749E-2,-4.3801594E-1,-7.495526E-1,2.4878584E-1,1.6305539E-1,-1.8700047E-1,-1.5482058E-1,-3.0486673E-1,-1.6498838E-1,2.6653644E-1,7.323821E-2,-2.4520427E-1,1.1860132E-3,2.4012561E-1,4.5727047E-1,2.581554E-1,-4.953006E-2,-2.8467962E-1,3.718325E-1,-1.059912E-2],"split_indices":[25,23,30,30,6,25,25,32,6,20,30,28,2,32,11,0,0,0,0,0,0,0,0,0,0,0,0,0,0,0,0],"split_type":[0,0,0,0,0,0,0,0,0,0,0,0,0,0,0,0,0,0,0,0,0,0,0,0,0,0,0,0,0,0,0],"sum_hessian":[7.6282935E2,2.8687958E2,4.7594977E2,2.2662674E2,6.0252823E1,4.0521542E2,7.0734344E1,3.3168842E1,1.934579E2,3.033967E1,2.9913155E1,3.1477173E2,9.044372E1,6.3846203E1,6.888141E0,1.0593053E1,2.257579E1,2.6911112E1,1.6654678E2,8.088534E0,2.2251135E1,4.8626475E0,2.5050507E1,2.1884615E2,9.592557E1,1.7594248E1,7.284947E1,2.0946913E1,4.289929E1,5.7878103E0,1.1003307E0],"tree_param":{"num_deleted":"0","num_feature":"33","num_nodes":"31","size_leaf_vector":"1"}},{"base_weights":[-7.237016E-2,1.5436445E-1,-8.727287E-1,5.7881314E-1,-8.772969E-2,-9.186686E-1,7.2441554E-1,3.141645E-1,1.0031043E0,-1.9244993E-1,1.0210595E0,1.2788913E-1,-9.5076734E-1,1.1377472E0,-7.5443104E-2,-1.0888795E-2,3.0906588E-1,3.4269392E-1,-1.0296324E-1,-1.9410715E-1,2.425333E-2,3.3489144E-1,1.07154675E-1,3.1449604E-1,-1.6379936E-1,-3.0397454E-1,-1.5719625E-1,4.3574825E-1,1.277038E-1],"categories":[],"categories_nodes":[],"categories_segments":[],"categories_sizes":[],"default_left":[0,0,0,0,0,0,0,0,0,0,0,0,0,0,0,0,0,0,0,0,0,0,0,0,0,0,0,0,0],"id":6,"left_children":[1,3,5,7,9,11,13,15,17,19,21,23,25,27,-1,-1,-1,-1,-1,-1,-1,-1,-1,-1,-1,-1,-1,-1,-1],"loss_changes":[1.2641488E2,5.5858837E1,1.1947868E1,2.1849823E1,4.0454605E1,5.157501E0,2.2458353E0,3.0909918E1,1.4517921E1,3.9513172E1,1.5031757E0,3.8861217E0,3.3507233E0,1.8717527E-1,0E0,0E0,0E0,0E0,0E0,0E0,0E0,0E0,0E0,0E0,0E0,0E0,0E0,0E0,0E0],"parents":[2147483647,0,0,1,1,2,2,3,3,4,4,5,5,6,6,7,7,8,8,9,9,10,10,11,11,12,12,13,13],"right_children":[2,4,6,8,10,12,14,16,18,20,22,24,26,28,-1,-1,-1,-1,-1,-1,-1,-1,-1,-1,-1,-1,-1,-1,-1],"split_conditions":[-1.5897858E-1,-6.382586E-1,4.346381E0,4.8904264E-1,2.0069466E0,-1.7835296E0,7.742958E-1,5.4694945E-1,2.9958408E0,-3.4708083E-1,2.9958408E0,2.8060347E-2,1.0002968E0,-3.0618766E-3,-7.5443104E-2,-1.0888795E-2,3.0906588E-1,3.4269392E-1,-1.0296324E-1,-1.9410715E-1,2.425333E-2,3.3489144E-1,1.07154675E-1,3.1449604E-1,-1.6379936E-1,-3.0397454E-1,-1.5719625E-1,4.3574825E-1,1.277038E-1],"split_indices":[32,30,28,20,25,30,32,25,18,20,18,32,23,14,0,0,0,0,0,0,0,0,0,0,0,0,0,0,0],"split_type":[0,0,0,0,0,0,0,0,0,0,0,0,0,0,0,0,0,0,0,0,0,0,0,0,0,0,0,0,0],"sum_hessian":[6.948774E2,5.4210956E2,1.5276779E2,1.9639374E2,3.4571585E2,1.489094E2,3.8583963E0,1.2202311E2,7.437062E1,3.1663727E2,2.907856E1,4.342448E0,1.4456696E2,2.5939124E0,1.264484E0,8.2563286E1,3.9459827E1,6.7538666E1,6.8319583E0,1.1837507E2,1.982622E2,2.4834156E1,4.244404E0,1.6006132E0,2.7418349E0,1.2490635E2,1.9660603E1,1.0777165E0,1.5161958E0],"tree_param":{"num_deleted":"0","num_feature":"33","num_nodes":"29","size_leaf_vector":"1"}},{"base_weights":[-5.825742E-2,2.5413993E-1,-4.8199004E-1,3.557691E-1,-5.809956E-1,-1.6621181E-1,-8.9693326E-1,-2.7825415E-2,6.0357887E-1,5.519751E-1,-8.2290167E-1,-3.75897E-1,6.985767E-1,-9.730539E-1,2.9988578E-1,-1.0291084E-1,1.3870998E-1,2.3279946E-1,-4.6441495E-2,3.2144156E-1,-1.5030107E-1,-2.9255697E-1,1.7672303E-1,-2.6924497E-2,-2.7067357E-1,2.9183853E-1,-1.5899272E-1,-2.9749405E-1,-6.1232876E-4,3.0698875E-1,-1.9504778E-1],"categories":[],"categories_nodes":[],"categories_segments":[],"categories_sizes":[],"default_left":[0,0,0,0,0,0,0,0,0,0,0,0,0,0,0,0,0,0,0,0,0,0,0,0,0,0,0,0,0,0,0],"id":7,"left_children":[1,3,5,7,9,11,13,15,17,19,21,23,25,27,29,-1,-1,-1,-1,-1,-1,-1,-1,-1,-1,-1,-1,-1,-1,-1,-1],"loss_changes":[8.537878E1,3.1728151E1,3.5709995E1,3.1549469E1,1.1601236E1,2.8665276E1,1.104538E1,2.0422615E1,2.6477669E1,4.778736E0,7.867588E0,1.9004143E1,1.0931208E1,2.005867E0,6.0418267E0,0E0,0E0,0E0,0E0,0E0,0E0,0E0,0E0,0E0,0E0,0E0,0E0,0E0,0E0,0E0,0E0],"parents":[2147483647,0,0,1,1,2,2,3,3,4,4,5,5,6,6,7,7,8,8,9,9,10,10,11,11,12,12,13,13,14,14],"right_children":[2,4,6,8,10,12,14,16,18,20,22,24,26,28,30,-1,-1,-1,-1,-1,-1,-1,-1,-1,-1,-1,-1,-1,-1,-1,-1],"split_conditions":[-5.0457597E-1,2.9958408E0,-1.385272E-1,-3.4708083E-1,-8.937791E-1,8.788908E-1,2.5982306E0,7.504087E-1,1.2174942E0,1.2174942E0,1.160353E0,-1.1307416E-1,6.2274086E-1,1.238609E0,-1.5897858E-1,-1.0291084E-1,1.3870998E-1,2.3279946E-1,-4.6441495E-2,3.2144156E-1,-1.5030107E-1,-2.9255697E-1,1.7672303E-1,-2.6924497E-2,-2.7067357E-1,2.9183853E-1,-1.5899272E-1,-2.9749405E-1,-6.1232876E-4,3.0698875E-1,-1.9504778E-1],"split_indices":[32,18,30,20,32,28,23,25,7,7,28,32,32,1,32,0,0,0,0,0,0,0,0,0,0,0,0,0,0,0,0],"split_type":[0,0,0,0,0,0,0,0,0,0,0,0,0,0,0,0,0,0,0,0,0,0,0,0,0,0,0,0,0,0,0],"sum_hessian":[6.430612E2,3.703906E2,2.7267065E2,3.307188E2,3.9671776E1,1.5563248E2,1.1703817E2,1.3014693E2,2.0057188E2,6.754621E0,3.2917152E1,1.2571556E2,2.9916908E1,1.1021519E2,6.822988E0,7.9394E1,5.0752934E1,1.633996E2,3.7172287E1,4.511345E0,2.2432764E0,2.9991753E1,2.9254005E0,8.219879E1,4.3516773E1,2.4628004E1,5.2889037E0,1.0812358E2,2.091605E0,3.8297384E0,2.9932494E0],"tree_param":{"num_deleted":"0","num_feature":"33","num_nodes":"31","size_leaf_vector":"1"}},{"base_weights":[-5.1646646E-2,-6.0903996E-1,1.2655295E-1,-7.999639E-1,-8.766348E-2,5.043084E-1,-1.17836945E-1,7.6252687E-1,-8.452204E-1,6.9812745E-1,-4.020245E-1,5.798893E-1,-5.0323087E-1,-2.0949203E-1,8.823071E-1,-7.590195E-2,4.0712658E-1,-3.0041605E-1,-1.5338899E-1,3.6039507E-1,-1.3764232E-1,2.2908261E-1,-1.8414316E-1,7.041754E-2,2.3674728E-1,-2.767569E-1,1.3831073E-1,-1.2845492E-1,7.842832E-2,3.4554088E-1,1.09988265E-1],"categories":[],"categories_nodes":[],"categories_segments":[],"categories_sizes":[],"default_left":[0,0,0,0,0,0,0,0,0,0,0,0,0,0,0,0,0,0,0,0,0,0,0,0,0,0,0,0,0,0,0],"id":8,"left_children":[1,3,5,7,9,11,13,15,17,19,21,23,25,27,29,-1,-1,-1,-1,-1,-1,-1,-1,-1,-1,-1,-1,-1,-1,-1,-1],"loss_changes":[5.926659E1,1.4317017E1,4.182228E1,8.116623E0,1.0127729E1,1.3838219E1,2.5437891E1,2.4567497E0,4.867981E0,7.3950396E0,7.6542172E0,1.1800991E1,5.660572E0,2.6184338E1,2.8183422E0,0E0,0E0,0E0,0E0,0E0,0E0,0E0,0E0,0E0,0E0,0E0,0E0,0E0,0E0,0E0,0E0],"parents":[2147483647,0,0,1,1,2,2,3,3,4,4,5,5,6,6,7,7,8,8,9,9,10,10,11,11,12,12,13,13,14,14],"right_children":[2,4,6,8,10,12,14,16,18,20,22,24,26,28,30,-1,-1,-1,-1,-1,-1,-1,-1,-1,-1,-1,-1,-1,-1,-1,-1],"split_conditions":[-3.2330778E-1,6.6047966E-1,-5.518036E-1,-1.9018719E0,-8.798634E-1,4.280616E0,2.0069466E0,-5.840235E-1,7.279351E-1,4.2874154E-1,-5.6608385E-1,8.999511E-2,9.328055E-1,1.0836904E-1,4.449415E-1,-7.590195E-2,4.0712658E-1,-3.0041605E-1,-1.5338899E-1,3.6039507E-1,-1.3764232E-1,2.2908261E-1,-1.8414316E-1,7.041754E-2,2.3674728E-1,-2.767569E-1,1.3831073E-1,-1.2845492E-1,7.842832E-2,3.4554088E-1,1.09988265E-1],"split_indices":[25,23,6,30,30,16,25,1,20,32,32,25,1,28,30,0,0,0,0,0,0,0,0,0,0,0,0,0,0,0,0],"split_type":[0,0,0,0,0,0,0,0,0,0,0,0,0,0,0,0,0,0,0,0,0,0,0,0,0,0,0,0,0,0,0],"sum_hessian":[5.94904E2,1.4353157E2,4.513724E2,1.0466848E2,3.88631E1,1.7688942E2,2.7448297E2,2.5001783E0,1.021683E2,1.0756039E1,2.810706E1,1.649408E2,1.1948638E1,2.5216467E2,2.2318308E1,1.1353773E0,1.3648012E0,6.825063E1,3.3917667E1,7.4691133E0,3.2869258E0,3.920998E0,2.4186062E1,6.3057034E1,1.0188376E2,8.357734E0,3.5909038E0,1.7225958E2,7.99051E1,1.3847827E1,8.470481E0],"tree_param":{"num_deleted":"0","num_feature":"33","num_nodes":"31","size_leaf_vector":"1"}},{"base_weights":[-4.1013166E-2,7.506113E-2,-7.402396E-1,7.7948606E-1,-4.055946E-2,-8.679142E-1,1.6145442E-1,8.685523E-1,-2.800477E-1,2.681342E-1,-3.1657347E-1,-9.375403E-2,-9.3443054E-1,-3.02013E-1,8.5275435E-1,8.259705E-2,3.0487344E-1,-2.5335798E-1,2.3921955E-1,1.6146092E-1,-1.3893466E-1,1.1767719E-1,-1.4005414E-1,2.893724E-1,-2.467499E-1,-2.945904E-1,-1.505792E-1,8.707762E-2,-2.5323978E-1,3.831519E-1,5.0568064E-3],"categories":[],"categories_nodes":[],"categories_segments":[],"categories_sizes":[],"default_left":[0,0,0,0,0,0,0,0,0,0,0,0,0,0,0,0,0,0,0,0,0,0,0,0,0,0,0,0,0,0,0],"id":9,"left_children":[1,3,5,7,9,11,13,15,17,19,21,23,25,27,29,-1,-1,-1,-1,-1,-1,-1,-1,-1,-1,-1,-1,-1,-1,-1,-1],"loss_changes":[4.5351353E1,3.9088436E1,9.297882E0,6.6283684E0,3.526389E1,3.5086365E0,3.6888297E0,5.2100677E0,4.3243513E0,3.8847004E1,2.345073E1,5.9123526E0,8.270798E-1,2.5406651E0,1.5961664E0,0E0,0E0,0E0,0E0,0E0,0E0,0E0,0E0,0E0,0E0,0E0,0E0,0E0,0E0,0E0,0E0],"parents":[2147483647,0,0,1,1,2,2,3,3,4,4,5,5,6,6,7,7,8,8,9,9,10,10,11,11,12,12,13,13,14,14],"right_children":[2,4,6,8,10,12,14,16,18,20,22,24,26,28,30,-1,-1,-1,-1,-1,-1,-1,-1,-1,-1,-1,-1,-1,-1,-1,-1],"split_conditions":[-1.2933558E-1,-1.1987286E0,1.872483E0,2.9958408E0,1.0592828E-1,-1.4737046E0,-6.0760087E-1,-3.3946675E-1,2.1925592E-1,8.188765E-1,-8.454336E-1,6.0896378E-2,1.4446124E0,6.2274086E-1,-7.405307E-1,8.259705E-2,3.0487344E-1,-2.5335798E-1,2.3921955E-1,1.6146092E-1,-1.3893466E-1,1.1767719E-1,-1.4005414E-1,2.893724E-1,-2.467499E-1,-2.945904E-1,-1.505792E-1,8.707762E-2,-2.5323978E-1,3.831519E-1,5.0568064E-3],"split_indices":[32,30,23,18,2,30,1,25,1,30,32,32,20,32,30,0,0,0,0,0,0,0,0,0,0,0,0,0,0,0,0],"split_type":[0,0,0,0,0,0,0,0,0,0,0,0,0,0,0,0,0,0,0,0,0,0,0,0,0,0,0,0,0,0,0],"sum_hessian":[5.570896E2,4.785424E2,7.854724E1,6.666153E1,4.1188086E2,6.8837685E1,9.709554E0,6.1658646E1,5.0028844E0,1.9444377E2,2.1743709E2,5.6372437E0,6.3200443E1,6.149724E0,3.5598295E0,1.2861731E1,4.8796913E1,3.424796E0,1.5780883E0,1.421925E2,5.225127E1,3.7752193E1,1.7968489E2,2.1668308E0,3.4704132E0,5.579714E1,7.4033027E0,3.1609435E0,2.9887805E0,2.0109076E0,1.548922E0],"tree_param":{"num_deleted":"0","num_feature":"33","num_nodes":"31","size_leaf_vector":"1"}},{"base_weights":[-3.404651E-2,-1.9483362E-1,3.6065698E-1,-4.1050717E-1,1.542468E-1,6.6497736E-2,6.6892034E-1,-2.9127654E-2,-6.2174016E-1,9.4030803E-1,1.057743E-2,4.4396603E-1,-4.077604E-1,7.62714E-1,-6.4844835E-1,2.2008072E-1,-6.366602E-2,-4.412488E-2,-2.3519085E-1,-1.19044095E-1,3.1644642E-1,-1.1773356E-1,1.0335769E-1,-4.0607434E-2,2.7305594E-1,-1.980673E-1,2.1054426E-1,2.532345E-1,-2.5294143E-1,-3.192618E-1,5.8430847E-2],"categories":[],"categories_nodes":[],"categories_segments":[],"categories_sizes":[],"default_left":[0,0,0,0,0,0,0,0,0,0,0,0,0,0,0,0,0,0,0,0,0,0,0,0,0,0,0,0,0,0,0],"id":10,"left_children":[1,3,5,7,9,11,13,15,17,19,21,23,25,27,29,-1,-1,-1,-1,-1,-1,-1,-1,-1,-1,-1,-1,-1,-1,-1,-1],"loss_changes":[3.3783688E1,2.8530445E1,1.3930429E1,1.8831993E1,1.6379341E1,1.4497399E1,9.779312E0,1.1949539E1,1.147644E1,3.8506184E0,1.6785133E1,1.2279726E1,1.05376425E1,9.941441E0,2.1476703E0,0E0,0E0,0E0,0E0,0E0,0E0,0E0,0E0,0E0,0E0,0E0,0E0,0E0,0E0,0E0,0E0],"parents":[2147483647,0,0,1,1,2,2,3,3,4,4,5,5,6,6,7,7,8,8,9,9,10,10,11,11,12,12,13,13,14,14],"right_children":[2,4,6,8,10,12,14,16,18,20,22,24,26,28,30,-1,-1,-1,-1,-1,-1,-1,-1,-1,-1,-1,-1,-1,-1,-1,-1],"split_conditions":[8.473813E-1,4.2992696E-1,1.3245812E-1,-7.5355345E-1,-9.9623847E-1,-2.7437145E-1,4.280616E0,-6.854782E-1,-7.682678E-1,-9.9660033E-1,-3.525971E-1,-3.7403116E-1,1.1054041E0,1.6513026E0,1.4446124E0,2.2008072E-1,-6.366602E-2,-4.412488E-2,-2.3519085E-1,-1.19044095E-1,3.1644642E-1,-1.1773356E-1,1.0335769E-1,-4.0607434E-2,2.7305594E-1,-1.980673E-1,2.1054426E-1,2.532345E-1,-2.5294143E-1,-3.192618E-1,5.8430847E-2],"split_indices":[20,25,1,30,30,30,16,32,2,0,28,28,28,30,20,0,0,0,0,0,0,0,0,0,0,0,0,0,0,0,0],"split_type":[0,0,0,0,0,0,0,0,0,0,0,0,0,0,0,0,0,0,0,0,0,0,0,0,0,0,0,0,0,0,0],"sum_hessian":[5.302276E2,3.7711267E2,1.5311491E2,2.3298859E2,1.4412408E2,7.897193E1,7.4142975E1,8.34529E1,1.4953568E2,2.1414354E1,1.2270973E2,4.40087E1,3.496323E1,6.960807E1,4.5349064E0,1.5572779E1,6.788013E1,3.8575768E1,1.10959915E2,1.4948174E0,1.9919537E1,5.5524853E1,6.718488E1,1.994044E1,2.406826E1,2.8812449E1,6.1507816E0,6.670132E1,2.9067507E0,2.8617923E0,1.6731143E0],"tree_param":{"num_deleted":"0","num_feature":"33","num_nodes":"31","size_leaf_vector":"1"}},{"base_weights":[-2.717975E-2,-1.3779403E-1,5.096056E-1,4.3106135E-2,-5.2041256E-1,6.849547E-1,-2.2844414E-1,1.7923886E-1,-5.0425583E-1,-5.899963E-1,5.6216353E-1,1.6025628E0,4.6697074E-1,4.3724304E-1,-6.5546197E-1,7.580793E-2,-2.4081877E-1,-1.032717E-2,-2.324283E-1,-2.1103546E-1,4.8490234E-2,2.4725445E-1,-6.9658354E-2,-1.2878495E-2,5.5290216E-1,1.9916476E-1,-8.6200275E-2,-1.7373247E-1,2.178523E-1,-2.8959823E-1,3.2593197E-1],"categories":[],"categories_nodes":[],"categories_segments":[],"categories_sizes":[],"default_left":[0,0,0,0,0,0,0,0,0,0,0,0,0,0,0,0,0,0,0,0,0,0,0,0,0,0,0,0,0,0,0],"id":11,"left_children":[1,3,5,7,9,11,13,15,17,19,21,23,25,27,29,-1,-1,-1,-1,-1,-1,-1,-1,-1,-1,-1,-1,-1,-1,-1,-1],"loss_changes":[3.0071953E1,2.907489E1,1.1356829E1,2.1395195E1,1.0487629E1,1.3289486E1,5.222588E0,1.6771654E1,7.244115E0,1.0957947E1,1.9926679E0,5.246456E0,8.823461E0,2.5893726E0,6.97457E0,0E0,0E0,0E0,0E0,0E0,0E0,0E0,0E0,0E0,0E0,0E0,0E0,0E0,0E0,0E0,0E0],"parents":[2147483647,0,0,1,1,2,2,3,3,4,4,5,5,6,6,7,7,8,8,9,9,10,10,11,11,12,12,13,13,14,14],"right_children":[2,4,6,8,10,12,14,16,18,20,22,24,26,28,30,-1,-1,-1,-1,-1,-1,-1,-1,-1,-1,-1,-1,-1,-1,-1,-1],"split_conditions":[1.4917719E0,7.8418416E-1,4.449415E-1,-3.2322815E-1,1.7454867E0,-1.4661725E-1,-7.4405515E-1,3.179829E0,-8.031194E-1,1.2695228E0,9.083187E-1,-4.367669E-1,2.866151E-1,7.120734E-1,2.8823943E0,7.580793E-2,-2.4081877E-1,-1.032717E-2,-2.324283E-1,-2.1103546E-1,4.8490234E-2,2.4725445E-1,-6.9658354E-2,-1.2878495E-2,5.5290216E-1,1.9916476E-1,-8.6200275E-2,-1.7373247E-1,2.178523E-1,-2.8959823E-1,3.2593197E-1],"split_indices":[4,4,30,32,1,2,32,3,30,28,30,25,24,30,23,0,0,0,0,0,0,0,0,0,0,0,0,0,0,0,0],"split_type":[0,0,0,0,0,0,0,0,0,0,0,0,0,0,0,0,0,0,0,0,0,0,0,0,0,0,0,0,0,0,0],"sum_hessian":[5.0428275E2,4.187376E2,8.554512E1,2.8491742E2,1.338202E2,6.9180786E1,1.6364338E1,2.2870854E2,5.6208862E1,1.2616578E2,7.6544256E0,1.2060425E1,5.712036E1,6.3856564E0,9.978682E0,2.1348209E2,1.5226453E1,2.0949535E1,3.525933E1,1.0967493E2,1.6490847E1,5.7276306E0,1.9267948E0,1.6423551E0,1.041807E1,4.539091E1,1.1729448E1,1.1911893E0,5.194467E0,8.850155E0,1.1285267E0],"tree_param":{"num_deleted":"0","num_feature":"33","num_nodes":"31","size_leaf_vector":"1"}},{"base_weights":[-2.2634372E-2,3.5885304E-2,-9.385388E-1,2.3712353E-1,-2.4227923E-1,-1.0754787E0,3.6466643E-1,1.3378621E0,1.5182275E-1,1.4777389E-1,-4.8050153E-1,-1.1561925E0,1.8543668E-2,2.1013398E-1,-6.438006E-2,5.0774163E-1,1.4475684E-1,1.2677037E-2,2.6591223E-1,1.5082829E-1,-1.9573951E-1,-1.7434245E-1,2.3123732E-1,-5.4867607E-2,-3.698209E-1],"categories":[],"categories_nodes":[],"categories_segments":[],"categories_sizes":[],"default_left":[0,0,0,0,0,0,0,0,0,0,0,0,0,0,0,0,0,0,0,0,0,0,0,0,0],"id":12,"left_children":[1,3,5,7,9,11,13,15,17,19,21,23,-1,-1,-1,-1,-1,-1,-1,-1,-1,-1,-1,-1,-1],"loss_changes":[2.6307085E1,2.5902992E1,5.6524124E0,2.499861E1,1.8125961E1,2.5431366E0,8.407234E-1,4.999645E0,2.0101555E1,2.147459E1,1.5668802E1,1.6513748E0,0E0,0E0,0E0,0E0,0E0,0E0,0E0,0E0,0E0,0E0,0E0,0E0,0E0],"parents":[2147483647,0,0,1,1,2,2,3,3,4,4,5,5,6,6,7,7,8,8,9,9,10,10,11,11],"right_children":[2,4,6,8,10,12,14,16,18,20,22,24,-1,-1,-1,-1,-1,-1,-1,-1,-1,-1,-1,-1,-1],"split_conditions":[4.280616E0,-1.385272E-1,2.0714834E0,-6.711349E-1,-6.711349E-1,1.5640585E0,1.6610147E-1,1.8505447E-1,9.8895735E-1,1.2064155E0,1.8825003E0,-1.4827355E0,1.8543668E-2,2.1013398E-1,-6.438006E-2,5.0774163E-1,1.4475684E-1,1.2677037E-2,2.6591223E-1,1.5082829E-1,-1.9573951E-1,-1.7434245E-1,2.3123732E-1,-5.4867607E-2,-3.698209E-1],"split_indices":[16,30,25,2,2,20,31,12,25,30,25,29,0,0,0,0,0,0,0,0,0,0,0,0,0],"split_type":[0,0,0,0,0,0,0,0,0,0,0,0,0,0,0,0,0,0,0,0,0,0,0,0,0],"sum_hessian":[4.8918985E2,4.6071436E2,2.8475498E1,2.6740652E2,1.933078E2,2.5925959E1,2.5495384E0,1.817598E1,2.4923056E2,7.344021E1,1.198676E2,2.4192398E1,1.7335618E0,1.4815445E0,1.067994E0,1.2157119E1,6.0188603E0,2.1780083E2,3.1429728E1,5.113042E1,2.2309788E1,1.1144017E2,8.427432E0,2.0109735E0,2.2181425E1],"tree_param":{"num_deleted":"0","num_feature":"33","num_nodes":"25","size_leaf_vector":"1"}},{"base_weights":[-1.6611107E-2,4.9137358E-2,-7.732294E-1,1.2796769E-1,-6.470758E-1,-9.061423E-1,7.6614386E-1,-3.952279E-1,2.3933305E-1,-7.572733E-1,8.1791687E-1,-9.7260743E-1,-2.4769765E-1,3.5337192E-1,-1.5029902E-2,-2.1218494E-1,2.116512E-3,8.99734E-2,-1.9142018E-1,-2.4888775E-1,1.356161E-1,8.11688E-2,3.0152965E-1,-2.974201E-1,-6.5010086E-2,-2.1432373E-1,1.677818E-1],"categories":[],"categories_nodes":[],"categories_segments":[],"categories_sizes":[],"default_left":[0,0,0,0,0,0,0,0,0,0,0,0,0,0,0,0,0,0,0,0,0,0,0,0,0,0,0],"id":13,"left_children":[1,3,5,7,9,11,13,15,17,19,21,23,25,-1,-1,-1,-1,-1,-1,-1,-1,-1,-1,-1,-1,-1,-1],"loss_changes":[2.3672081E1,2.4124023E1,8.478004E0,2.3070448E1,7.8388042E0,1.3117313E0,1.2573838E0,8.739887E0,1.7505236E1,4.0595684E0,9.7841024E-2,2.3808861E-1,2.1299813E0,0E0,0E0,0E0,0E0,0E0,0E0,0E0,0E0,0E0,0E0,0E0,0E0,0E0,0E0],"parents":[2147483647,0,0,1,1,2,2,3,3,4,4,5,5,6,6,7,7,8,8,9,9,10,10,11,11,12,12],"right_children":[2,4,6,8,10,12,14,16,18,20,22,24,26,-1,-1,-1,-1,-1,-1,-1,-1,-1,-1,-1,-1,-1,-1],"split_conditions":[6.0896378E-2,2.9958408E0,4.416395E0,-1.0637581E0,2.3684492E0,1.3410659E0,5.2850757E-2,-1.6183229E-1,3.179829E0,2.3468196E0,-3.6534584E-1,3.121615E0,8.788908E-1,3.5337192E-1,-1.5029902E-2,-2.1218494E-1,2.116512E-3,8.99734E-2,-1.9142018E-1,-2.4888775E-1,1.356161E-1,8.11688E-2,3.0152965E-1,-2.974201E-1,-6.5010086E-2,-2.1432373E-1,1.677818E-1],"split_indices":[32,18,23,20,28,15,22,28,3,1,22,11,28,0,0,0,0,0,0,0,0,0,0,0,0,0,0],"split_type":[0,0,0,0,0,0,0,0,0,0,0,0,0,0,0,0,0,0,0,0,0,0,0,0,0,0,0],"sum_hessian":[4.7409058E2,4.3704718E2,3.7043385E1,3.9332794E2,4.3719265E1,3.4477848E1,2.5655367E0,6.858166E1,3.2474628E2,4.111003E1,2.6092315E0,3.0883276E1,3.5945704E0,1.4107748E0,1.1547618E0,3.819512E1,3.0386534E1,3.0438858E2,2.0357697E1,3.908557E1,2.024461E0,1.2880857E0,1.3211458E0,2.9830122E1,1.0531533E0,2.350086E0,1.2444844E0],"tree_param":{"num_deleted":"0","num_feature":"33","num_nodes":"27","size_leaf_vector":"1"}},{"base_weights":[-1.5884532E-2,-5.872518E-1,6.921021E-2,5.9110872E-2,-7.0269537E-1,4.089929E-1,-7.5108305E-2,2.5589564E-1,-3.0474982E-1,3.181666E-1,-7.649361E-1,7.889328E-1,1.9922647E-1,-4.3640232E-1,1.257573E-1,-2.0490733E-1,1.5400839E-1,3.2889566E-1,-1.9036543E-1,-2.4779685E-1,1.1648501E-1,6.9951E-2,2.981798E-1,2.0138647E-2,2.537164E-1,1.10905536E-1,-1.7402375E-1,8.3851434E-2,-1.3380532E-1],"categories":[],"categories_nodes":[],"categories_segments":[],"categories_sizes":[],"default_left":[0,0,0,0,0,0,0,0,0,0,0,0,0,0,0,0,0,0,0,0,0,0,0,0,0,0,0,0,0],"id":14,"left_children":[1,3,5,7,9,11,13,-1,15,17,19,21,23,25,27,-1,-1,-1,-1,-1,-1,-1,-1,-1,-1,-1,-1,-1,-1],"loss_changes":[2.2648563E1,4.547014E0,1.992052E1,3.169453E0,3.5034313E0,9.492235E0,2.0776587E1,0E0,2.716089E0,3.4050872E0,3.7462883E0,4.6364956E0,6.719243E0,1.205645E1,1.6325102E1,0E0,0E0,0E0,0E0,0E0,0E0,0E0,0E0,0E0,0E0,0E0,0E0,0E0,0E0],"parents":[2147483647,0,0,1,1,2,2,3,3,4,4,5,5,6,6,8,8,9,9,10,10,11,11,12,12,13,13,14,14],"right_children":[2,4,6,8,10,12,14,-1,16,18,20,22,24,26,28,-1,-1,-1,-1,-1,-1,-1,-1,-1,-1,-1,-1,-1,-1],"split_conditions":[-1.0932661E0,-9.5714027E-1,-7.4405515E-1,-5.289052E-1,-2.2641144E0,2.4776565E-1,-4.2636976E-1,2.5589564E-1,4.410163E-1,-4.7599515E-1,2.8842554E0,-7.054195E-1,1.4917719E0,-1.3494946E0,3.2390293E-1,-2.0490733E-1,1.5400839E-1,3.2889566E-1,-1.9036543E-1,-2.4779685E-1,1.1648501E-1,6.9951E-2,2.981798E-1,2.0138647E-2,2.537164E-1,1.10905536E-1,-1.7402375E-1,8.3851434E-2,-1.3380532E-1],"split_indices":[5,30,32,28,2,7,28,0,27,23,28,20,4,30,30,0,0,0,0,0,0,0,0,0,0,0,0,0,0],"split_type":[0,0,0,0,0,0,0,0,0,0,0,0,0,0,0,0,0,0,0,0,0,0,0,0,0,0,0,0,0],"sum_hessian":[4.639888E2,5.938021E1,4.046086E2,9.072382E0,5.0307827E1,1.2007373E2,2.8453488E2,2.4288442E0,6.643538E0,2.6546593E0,4.7653168E1,4.1729706E1,7.8344025E1,1.0124835E2,1.8328651E2,4.655889E0,1.9876492E0,1.3782322E0,1.2764271E0,4.5526665E1,2.1265054E0,1.1820707E1,2.9908998E1,6.596857E1,1.2375458E1,1.5078516E1,8.616984E1,1.448486E2,3.8437916E1],"tree_param":{"num_deleted":"0","num_feature":"33","num_nodes":"29","size_leaf_vector":"1"}},{"base_weights":[-1.1221297E-2,3.861138E-2,-8.378888E-1,-5.892179E-1,1.1007134E-1,-2.4479054E-1,-1.163879E0,-7.84829E-1,-2.2413195E-3,-1.2714756E-1,3.187009E-1,-4.8590097E-1,2.0593931E-1,4.831579E-2,-1.2645413E0,-3.0389115E-1,-1.1203135E-1,-1.026138E-1,2.0968926E-1,-7.234013E-2,1.7332774E-1,1.9854537E-1,4.175479E-2,-2.2698697E-1,1.5729502E-1,-3.9958987E-1,-7.081197E-2],"categories":[],"categories_nodes":[],"categories_segments":[],"categories_sizes":[],"default_left":[0,0,0,0,0,0,0,0,0,0,0,0,0,0,0,0,0,0,0,0,0,0,0,0,0,0,0],"id":15,"left_children":[1,3,5,7,9,11,13,15,17,19,21,23,-1,-1,25,-1,-1,-1,-1,-1,-1,-1,-1,-1,-1,-1,-1],"loss_changes":[1.8492643E1,1.9069418E1,4.6495266E0,4.986512E0,1.8904118E1,2.6504257E0,2.3646564E0,2.6797695E0,3.0654774E0,1.45276E1,1.2416883E1,2.7984674E0,0E0,0E0,7.377167E-1,0E0,0E0,0E0,0E0,0E0,0E0,0E0,0E0,0E0,0E0,0E0,0E0],"parents":[2147483647,0,0,1,1,2,2,3,3,4,4,5,5,6,6,7,7,8,8,9,9,10,10,11,11,14,14],"right_children":[2,4,6,8,10,12,14,16,18,20,22,24,-1,-1,26,-1,-1,-1,-1,-1,-1,-1,-1,-1,-1,-1,-1],"split_conditions":[4.280616E0,-5.7207644E-1,-7.919236E-1,1.2695228E0,5.215331E-3,2.0714834E0,-1.2068272E0,7.279351E-1,1.1317232E0,8.1671363E-1,-6.382586E-1,1.0132599E0,2.0593931E-1,4.831579E-2,1.5640585E0,-3.0389115E-1,-1.1203135E-1,-1.026138E-1,2.0968926E-1,-7.234013E-2,1.7332774E-1,1.9854537E-1,4.175479E-2,-2.2698697E-1,1.5729502E-1,-3.9958987E-1,-7.081197E-2],"split_indices":[16,25,32,28,19,25,7,20,13,28,30,15,0,0,20,0,0,0,0,0,0,0,0,0,0,0,0],"split_type":[0,0,0,0,0,0,0,0,0,0,0,0,0,0,0,0,0,0,0,0,0,0,0,0,0,0,0],"sum_hessian":[4.471191E2,4.2259763E2,2.4521484E1,4.2444603E1,3.80153E2,9.3185215E0,1.5202963E1,3.1582577E1,1.0862027E1,1.780709E2,2.0208212E2,7.7819366E0,1.5365849E0,1.0311304E0,1.4171832E1,1.9375422E1,1.2207155E1,7.661474E0,3.200553E0,1.5385059E2,2.4220327E1,6.848971E1,1.335924E2,6.3352265E0,1.4467101E0,1.3023033E1,1.1487998E0],"tree_param":{"num_deleted":"0","num_feature":"33","num_nodes":"27","size_leaf_vector":"1"}},{"base_weights":[-1.1094581E-2,1.802346E-1,-2.022346E-1,-4.330397E-1,3.183971E-1,4.8177725E-1,-3.2906914E-1,-7.5821346E-1,-1.8807502E-1,5.227317E-1,-8.4513E-2,5.7611984E-1,-2.7619803E-1,1.5406835E-1,-4.508489E-1,-2.8977925E-1,-5.351706E-2,-1.1440112E-1,1.795328E-1,2.0800668E-1,2.7333612E-2,-1.467588E-1,1.542464E-1,-5.1982407E-2,2.2110131E-1,1.12993665E-1,-1.524966E-1,-1.6331421E-1,1.2028307E-1],"categories":[],"categories_nodes":[],"categories_segments":[],"categories_sizes":[],"default_left":[0,0,0,0,0,0,0,0,0,0,0,0,0,0,0,0,0,0,0,0,0,0,0,0,0,0,0,0,0],"id":16,"left_children":[1,3,5,7,9,11,13,15,17,19,21,23,-1,25,27,-1,-1,-1,-1,-1,-1,-1,-1,-1,-1,-1,-1,-1,-1],"loss_changes":[1.6017544E1,1.8687035E1,1.916472E1,3.0973892E0,1.4800907E1,5.1181326E0,1.0977795E1,1.8927851E0,3.95662E0,8.70549E0,1.5072387E1,4.118883E0,0E0,5.804175E0,1.2035801E1,0E0,0E0,0E0,0E0,0E0,0E0,0E0,0E0,0E0,0E0,0E0,0E0,0E0,0E0],"parents":[2147483647,0,0,1,1,2,2,3,3,4,4,5,5,6,6,7,7,8,8,9,9,10,10,11,11,13,13,14,14],"right_children":[2,4,6,8,10,12,14,16,18,20,22,24,-1,26,28,-1,-1,-1,-1,-1,-1,-1,-1,-1,-1,-1,-1,-1,-1],"split_conditions":[3.0019408E-1,-1.0932661E0,-1.3946418E0,-2.2763462E-1,4.0569624E-1,5.255965E-1,-8.1114584E-1,3.649985E-1,1.4917719E0,-4.1339248E-1,7.887398E-1,-1.0074703E0,-2.7619803E-1,3.0898452E-1,1.7250928E0,-2.8977925E-1,-5.351706E-2,-1.1440112E-1,1.795328E-1,2.0800668E-1,2.7333612E-2,-1.467588E-1,1.542464E-1,-5.1982407E-2,2.2110131E-1,1.12993665E-1,-1.524966E-1,-1.6331421E-1,1.2028307E-1],"split_indices":[2,5,30,20,30,6,32,23,4,32,25,19,0,22,28,0,0,0,0,0,0,0,0,0,0,0,0,0,0],"split_type":[0,0,0,0,0,0,0,0,0,0,0,0,0,0,0,0,0,0,0,0,0,0,0,0,0,0,0,0,0],"sum_hessian":[4.3599225E2,2.1791682E2,2.1807542E2,3.967474E1,1.7824208E2,3.367414E1,1.8440128E2,1.6146358E1,2.3528381E1,1.18067245E2,6.0174835E1,3.210371E1,1.5704304E0,3.7069622E1,1.4733167E2,1.1397415E1,4.7489433E0,1.9300938E1,4.2274423E0,8.418258E1,3.3884663E1,3.601353E1,2.4161304E1,5.6604595E0,2.644325E1,2.806917E1,9.00045E0,1.3307964E2,1.4252022E1],"tree_param":{"num_deleted":"0","num_feature":"33","num_nodes":"29","size_leaf_vector":"1"}},{"base_weights":[-9.917505E-3,-1.3382094E-1,2.9059494E-1,2.1455152E-2,-4.134738E-1,-1.2090941E-1,4.5398593E-1,2.0455338E-1,-4.0398252E-1,8.278202E-2,-5.9749234E-1,-3.0989015E-1,6.0277957E-1,7.900697E-1,9.166903E-2,2.8358594E-1,3.1015372E-2,6.1125543E-2,-1.9115919E-1,1.1993127E-1,-1.562291E-1,-2.054744E-1,1.11107476E-1,-1.613844E-1,6.624781E-2,-2.1302427E-1,2.810233E-1,2.633566E-1,-1.360704E-1,7.366421E-2,-2.474822E-1],"categories":[],"categories_nodes":[],"categories_segments":[],"categories_sizes":[],"default_left":[0,0,0,0,0,0,0,0,0,0,0,0,0,0,0,0,0,0,0,0,0,0,0,0,0,0,0,0,0,0,0],"id":17,"left_children":[1,3,5,7,9,11,13,15,17,19,21,23,25,27,29,-1,-1,-1,-1,-1,-1,-1,-1,-1,-1,-1,-1,-1,-1,-1,-1],"loss_changes":[1.5835836E1,1.3082943E1,8.403728E0,1.5236926E1,9.8701E0,5.121294E0,1.0776121E1,1.0144354E1,8.473748E0,5.941722E0,6.9017735E0,3.6614652E0,4.089679E0,5.4297123E0,6.409125E0,0E0,0E0,0E0,0E0,0E0,0E0,0E0,0E0,0E0,0E0,0E0,0E0,0E0,0E0,0E0,0E0],"parents":[2147483647,0,0,1,1,2,2,3,3,4,4,5,5,6,6,7,7,8,8,9,9,10,10,11,11,12,12,13,13,14,14],"right_children":[2,4,6,8,10,12,14,16,18,20,22,24,26,28,30,-1,-1,-1,-1,-1,-1,-1,-1,-1,-1,-1,-1,-1,-1,-1,-1],"split_conditions":[8.473813E-1,-5.279372E-1,-4.7684544E-1,1.2406509E0,-7.219629E-1,1.017901E0,4.1675356E-1,-1.0790931E0,-6.8851155E-1,-1.2933558E-1,2.5982306E0,5.7719195E-1,-4.589639E-1,7.969623E-1,1.7421944E0,2.8358594E-1,3.1015372E-2,6.1125543E-2,-1.9115919E-1,1.1993127E-1,-1.562291E-1,-2.054744E-1,1.11107476E-1,-1.613844E-1,6.624781E-2,-2.1302427E-1,2.810233E-1,2.633566E-1,-1.360704E-1,7.366421E-2,-2.474822E-1],"split_indices":[20,32,5,10,7,19,2,2,30,32,23,15,1,6,0,0,0,0,0,0,0,0,0,0,0,0,0,0,0,0,0],"split_type":[0,0,0,0,0,0,0,0,0,0,0,0,0,0,0,0,0,0,0,0,0,0,0,0,0,0,0,0,0,0,0],"sum_hessian":[4.2325546E2,3.0008356E2,1.2317191E2,1.9354292E2,1.0654063E2,3.508058E1,8.809133E1,1.3567209E2,5.787084E1,2.8968735E1,7.757189E1,2.8270061E1,6.81052E0,4.508762E1,4.3003708E1,1.5300675E1,1.20371414E2,1.6083965E1,4.1786873E1,1.9214628E1,9.7541065E0,7.141369E1,6.1581964E0,1.9763653E1,8.506408E0,1.1527375E0,5.6577826E0,4.2389557E1,2.6980605E0,3.7448975E1,5.5547347E0],"tree_param":{"num_deleted":"0","num_feature":"33","num_nodes":"31","size_leaf_vector":"1"}},{"base_weights":[-1.0090682E-2,-9.980418E-2,4.1534045E-1,5.2256275E-2,-4.3456253E-1,4.9036166E-1,-5.605025E-1,-4.2594355E-2,8.282564E-1,-4.8880905E-1,7.196937E-1,6.162421E-1,-3.531186E-2,-3.083045E-1,1.5195271E-1,-8.153605E-2,6.508795E-2,3.0655158E-1,-1.3509804E-1,-4.8817233E-3,-1.9340384E-1,3.239636E-1,-8.849907E-2,2.1364146E-1,-1.1755985E-1,-2.2494653E-1,1.07298136E-1],"categories":[],"categories_nodes":[],"categories_segments":[],"categories_sizes":[],"default_left":[0,0,0,0,0,0,0,0,0,0,0,0,0,0,0,0,0,0,0,0,0,0,0,0,0,0,0],"id":18,"left_children":[1,3,5,7,9,11,13,15,17,19,21,23,25,-1,-1,-1,-1,-1,-1,-1,-1,-1,-1,-1,-1,-1,-1],"loss_changes":[1.5834262E1,1.745858E1,5.5645466E0,1.7437506E1,7.0576534E0,4.496973E0,3.3244615E0,1.2648377E1,6.845995E0,7.56752E0,2.2233539E0,5.559183E0,4.202489E0,0E0,0E0,0E0,0E0,0E0,0E0,0E0,0E0,0E0,0E0,0E0,0E0,0E0,0E0],"parents":[2147483647,0,0,1,1,2,2,3,3,4,4,5,5,6,6,7,7,8,8,9,9,10,10,11,11,12,12],"right_children":[2,4,6,8,10,12,14,16,18,20,22,24,26,-1,-1,-1,-1,-1,-1,-1,-1,-1,-1,-1,-1,-1,-1],"split_conditions":[1.4917719E0,7.8418416E-1,3.179829E0,7.659637E-2,3.2654011E0,2.866151E-1,8.7602174E-1,-2.1855475E-1,8.350796E-1,-6.1285514E-1,7.0017064E-1,7.0978206E-1,-5.266465E-1,-3.083045E-1,1.5195271E-1,-8.153605E-2,6.508795E-2,3.0655158E-1,-1.3509804E-1,-4.8817233E-3,-1.9340384E-1,3.239636E-1,-8.849907E-2,2.1364146E-1,-1.1755985E-1,-2.2494653E-1,1.07298136E-1],"split_indices":[4,4,3,4,23,24,17,28,6,2,22,31,26,0,0,0,0,0,0,0,0,0,0,0,0,0,0],"split_type":[0,0,0,0,0,0,0,0,0,0,0,0,0,0,0,0,0,0,0,0,0,0,0,0,0,0,0],"sum_hessian":[4.127827E2,3.4152786E2,7.125485E1,2.3543013E2,1.0609775E2,6.662995E1,4.6249013E0,2.1062991E2,2.4800219E1,1.0188593E2,4.2118115E0,5.3618015E1,1.3011935E1,3.2422001E0,1.382701E0,1.1183226E2,9.879765E1,2.1713518E1,3.0867004E0,2.554577E1,7.6340164E1,3.0610027E0,1.1508088E0,4.9228733E1,4.389282E0,4.29486E0,8.717075E0],"tree_param":{"num_deleted":"0","num_feature":"33","num_nodes":"27","size_leaf_vector":"1"}},{"base_weights":[-7.953044E-3,3.4815367E-2,-7.8026944E-1,9.698974E-2,-5.384889E-1,-2.7303103E-1,-1.0777878E0,-9.8416574E-2,2.9259285E-1,-6.2045604E-1,2.206674E-1,-6.425396E-1,2.2932115E-1,-1.1475251E0,-5.4106157E-2,3.7353456E-2,-1.2312907E-1,1.15353115E-1,-8.2636625E-2,-2.5683224E-1,-3.7317418E-2,-2.9261583E-1,4.8742548E-2,-1.3188785E-1,2.3789698E-1,-3.7157524E-1,-5.9981976E-2],"categories":[],"categories_nodes":[],"categories_segments":[],"categories_sizes":[],"default_left":[0,0,0,0,0,0,0,0,0,0,0,0,0,0,0,0,0,0,0,0,0,0,0,0,0,0,0],"id":19,"left_children":[1,3,5,7,9,11,13,15,17,19,-1,21,23,25,-1,-1,-1,-1,-1,-1,-1,-1,-1,-1,-1,-1,-1],"loss_changes":[1.3519231E1,1.3882221E1,2.9466696E0,1.3440193E1,4.4365664E0,1.8697085E0,6.189556E-1,1.2312335E1,9.274819E0,4.1430006E0,0E0,1.6614716E0,2.1093132E0,7.9286194E-1,0E0,0E0,0E0,0E0,0E0,0E0,0E0,0E0,0E0,0E0,0E0,0E0,0E0],"parents":[2147483647,0,0,1,1,2,2,3,3,4,4,5,5,6,6,7,7,8,8,9,9,11,11,12,12,13,13],"right_children":[2,4,6,8,10,12,14,16,18,20,-1,22,24,26,-1,-1,-1,-1,-1,-1,-1,-1,-1,-1,-1,-1,-1],"split_conditions":[4.280616E0,2.9958408E0,-7.919236E-1,1.6650885E-1,3.7055602E0,-1.1222745E-1,9.0917814E-1,-3.6767572E-1,7.969623E-1,7.8865135E-1,2.206674E-1,1.7850073E-1,9.8863524E-1,1.1845529E0,-5.4106157E-2,3.7353456E-2,-1.2312907E-1,1.15353115E-1,-8.2636625E-2,-2.5683224E-1,-3.7317418E-2,-2.9261583E-1,4.8742548E-2,-1.3188785E-1,2.3789698E-1,-3.7157524E-1,-5.9981976E-2],"split_indices":[16,18,32,25,23,12,31,30,6,1,0,15,1,23,0,0,0,0,0,0,0,0,0,0,0,0,0],"split_type":[0,0,0,0,0,0,0,0,0,0,0,0,0,0,0,0,0,0,0,0,0,0,0,0,0,0,0],"sum_hessian":[4.0746988E2,3.869943E2,2.0475586E1,3.4988086E2,3.711346E1,8.2787895E0,1.2196796E1,1.7527702E2,1.7460382E2,3.5352055E1,1.7614063E0,4.609315E0,3.669475E0,1.1058774E1,1.1380225E0,1.0258375E2,7.269328E1,1.5056377E2,2.404005E1,2.3474764E1,1.1877291E1,3.1112716E0,1.4980433E0,1.778665E0,1.89081E0,9.809069E0,1.2497059E0],"tree_param":{"num_deleted":"0","num_feature":"33","num_nodes":"27","size_leaf_vector":"1"}},{"base_weights":[-9.531591E-3,3.8815957E-1,-9.458588E-2,-1.9046926E-1,5.8747524E-1,-1.7416438E-1,3.685694E-1,-5.0992197E-1,3.5143274E-1,6.684501E-2,8.260318E-1,-4.0452105E-1,4.8261035E-2,7.993141E-2,6.9389147E-1,1.6335066E-2,-2.9487193E-1,3.196806E-1,-3.273971E-2,-3.9173298E-2,2.838889E-1,-2.2450767E-2,2.9213154E-1,-1.576246E-1,2.852086E-2,-3.3920486E-2,1.3419168E-1,2.3077399E-1,-3.3456072E-2,1.5621337E-2,2.7220857E-1],"categories":[],"categories_nodes":[],"categories_segments":[],"categories_sizes":[],"default_left":[0,0,0,0,0,0,0,0,0,0,0,0,0,0,0,0,0,0,0,0,0,0,0,0,0,0,0,0,0,0,0],"id":20,"left_children":[1,3,5,7,9,11,13,15,17,19,21,23,25,27,29,-1,-1,-1,-1,-1,-1,-1,-1,-1,-1,-1,-1,-1,-1,-1,-1],"loss_changes":[1.3435784E1,8.18368E0,1.2121529E1,3.4141202E0,6.440668E0,1.4358203E1,4.4787364E0,3.300677E0,2.5905807E0,3.165917E0,4.834873E0,8.359467E0,9.273889E0,3.6115725E0,3.045188E0,0E0,0E0,0E0,0E0,0E0,0E0,0E0,0E0,0E0,0E0,0E0,0E0,0E0,0E0,0E0,0E0],"parents":[2147483647,0,0,1,1,2,2,3,3,4,4,5,5,6,6,7,7,8,8,9,9,10,10,11,11,12,12,13,13,14,14],"right_children":[2,4,6,8,10,12,14,16,18,20,22,24,26,28,30,-1,-1,-1,-1,-1,-1,-1,-1,-1,-1,-1,-1,-1,-1,-1,-1],"split_conditions":[-9.345159E-1,-8.248657E-1,1.1944705E0,-2.2636402E-2,-9.4472766E-1,-2.3663399E-1,1.1257806E-2,-7.264665E-1,-2.3709863E-1,2.0381892E0,-5.3532904E-1,1.4917719E0,1.683974E-1,-5.655656E-1,-3.0072525E-1,1.6335066E-2,-2.9487193E-1,3.196806E-1,-3.273971E-2,-3.9173298E-2,2.838889E-1,-2.2450767E-2,2.9213154E-1,-1.576246E-1,2.852086E-2,-3.3920486E-2,1.3419168E-1,2.3077399E-1,-3.3456072E-2,1.5621337E-2,2.7220857E-1],"split_indices":[6,20,25,28,31,28,20,32,7,14,25,4,11,30,5,0,0,0,0,0,0,0,0,0,0,0,0,0,0,0,0],"split_type":[0,0,0,0,0,0,0,0,0,0,0,0,0,0,0,0,0,0,0,0,0,0,0,0,0,0,0,0,0,0,0],"sum_hessian":[3.9512524E2,6.898872E1,3.261365E2,1.7686838E1,5.1301884E1,2.7884912E2,4.7287388E1,1.1164407E1,6.5224323E0,1.6522684E1,3.4779198E1,1.3658014E2,1.4226898E2,2.5716467E1,2.1570923E1,5.4938917E0,5.6705146E0,2.0421367E0,4.4802957E0,1.4189005E1,2.3336794E0,4.9696193E0,2.980958E1,1.0992746E2,2.6652674E1,1.0182066E2,4.044832E1,4.9339557E0,2.078251E1,5.694316E0,1.5876607E1],"tree_param":{"num_deleted":"0","num_feature":"33","num_nodes":"31","size_leaf_vector":"1"}},{"base_weights":[-4.628095E-3,1.7672452E-1,-1.5400976E-1,9.810554E-2,7.729444E-1,-1.9592251E-1,8.342744E-1,-3.4690738E-1,2.192191E-1,-6.5320514E-2,9.223556E-1,-5.2337762E-2,-5.016282E-1,-3.218319E-2,1.0467703E0,1.8308236E-1,-1.5559646E-1,1.3233952E-1,-6.333751E-3,1.1266001E-1,-1.6261344E-1,3.9183583E-2,3.1214306E-1,6.300815E-3,-2.844333E-1,-2.064157E-2,-2.5517634E-1,3.4178394E-1,7.243013E-2],"categories":[],"categories_nodes":[],"categories_segments":[],"categories_sizes":[],"default_left":[0,0,0,0,0,0,0,0,0,0,0,0,0,0,0,0,0,0,0,0,0,0,0,0,0,0,0,0,0],"id":21,"left_children":[1,3,5,7,9,11,13,15,17,19,21,23,25,-1,27,-1,-1,-1,-1,-1,-1,-1,-1,-1,-1,-1,-1,-1,-1],"loss_changes":[1.0508229E1,8.136941E0,8.972871E0,8.4808855E0,2.5985537E0,8.964851E0,1.8815155E0,5.864566E0,6.5795574E0,1.0441542E0,1.4789238E0,9.249548E0,9.810953E0,0E0,2.6935577E-1,0E0,0E0,0E0,0E0,0E0,0E0,0E0,0E0,0E0,0E0,0E0,0E0,0E0,0E0],"parents":[2147483647,0,0,1,1,2,2,3,3,4,4,5,5,6,6,7,7,8,8,9,9,10,10,11,11,12,12,14,14],"right_children":[2,4,6,8,10,12,14,16,18,20,22,24,26,-1,28,-1,-1,-1,-1,-1,-1,-1,-1,-1,-1,-1,-1,-1,-1],"split_conditions":[-5.2783364E-1,1.2695228E0,2.2879837E0,-3.2330778E-1,-6.076861E-1,1.6452159E-1,-1.4220967E0,-1.6296409E0,-3.6767572E-1,-2.8617722E-1,-7.7872485E-1,3.179829E0,-5.3514886E-1,-3.218319E-2,8.286883E-1,1.8308236E-1,-1.5559646E-1,1.3233952E-1,-6.333751E-3,1.1266001E-1,-1.6261344E-1,3.9183583E-2,3.1214306E-1,6.300815E-3,-2.844333E-1,-2.064157E-2,-2.5517634E-1,3.4178394E-1,7.243013E-2],"split_indices":[6,28,25,25,21,30,20,30,30,22,1,3,2,0,21,0,0,0,0,0,0,0,0,0,0,0,0,0,0],"split_type":[0,0,0,0,0,0,0,0,0,0,0,0,0,0,0,0,0,0,0,0,0,0,0,0,0,0,0,0,0],"sum_hessian":[3.8588513E2,1.742088E2,2.1167635E2,1.5494228E2,1.9266518E1,2.0383359E2,7.8427496E0,3.2748543E1,1.2219374E2,2.999692E0,1.6266825E1,1.3948914E2,6.434446E1,1.5352665E0,6.307483E0,4.5936913E0,2.8154852E1,6.309699E1,5.909675E1,1.668759E0,1.3309331E0,2.3851798E0,1.3881645E1,1.2983554E2,9.653593E0,2.9255423E1,3.508904E1,5.2856545E0,1.0218285E0],"tree_param":{"num_deleted":"0","num_feature":"33","num_nodes":"29","size_leaf_vector":"1"}},{"base_weights":[-3.1500433E-3,-1.8863033E-1,1.6060072E-1,-6.152694E-2,-4.9935594E-1,3.6717212E-1,-6.684949E-2,3.0735022E-1,-2.1446851E-1,4.4355106E-2,-7.2251403E-1,4.6128592E-1,-5.647141E-1,2.0948438E-1,-3.9328164E-1,1.3890491E-1,-2.111638E-1,2.5060204E-1,-8.5027084E-2,-1.8866101E-1,1.2638845E-1,-2.5748903E-1,7.184452E-2,1.7262112E-1,-4.192727E-2,5.5206608E-2,-2.501917E-1,1.1708367E-1,-1.1723326E-1,-1.6788217E-1,7.9933755E-2],"categories":[],"categories_nodes":[],"categories_segments":[],"categories_sizes":[],"default_left":[0,0,0,0,0,0,0,0,0,0,0,0,0,0,0,0,0,0,0,0,0,0,0,0,0,0,0,0,0,0,0],"id":22,"left_children":[1,3,5,7,9,11,13,15,17,19,21,23,25,27,29,-1,-1,-1,-1,-1,-1,-1,-1,-1,-1,-1,-1,-1,-1,-1,-1],"loss_changes":[1.1474897E1,6.9653306E0,9.452806E0,7.2227535E0,6.254534E0,9.496876E0,8.773809E0,6.2434034E0,6.771001E0,4.291127E0,4.962599E0,6.6790237E0,2.1916623E0,5.8861566E0,5.034238E0,0E0,0E0,0E0,0E0,0E0,0E0,0E0,0E0,0E0,0E0,0E0,0E0,0E0,0E0,0E0,0E0],"parents":[2147483647,0,0,1,1,2,2,3,3,4,4,5,5,6,6,7,7,8,8,9,9,10,10,11,11,12,12,13,13,14,14],"right_children":[2,4,6,8,10,12,14,16,18,20,22,24,26,28,30,-1,-1,-1,-1,-1,-1,-1,-1,-1,-1,-1,-1,-1,-1,-1,-1],"split_conditions":[1.1257806E-2,1.2406509E0,3.1962067E-1,-2.826033E-1,-9.5714027E-1,1.305008E0,-6.382586E-1,1.3243997E0,-9.4239926E-1,-1.350424E-1,1.6493875E0,-2.5468498E-1,-7.919236E-1,1.2843566E0,1.4917719E0,1.3890491E-1,-2.111638E-1,2.5060204E-1,-8.5027084E-2,-1.8866101E-1,1.2638845E-1,-2.5748903E-1,7.184452E-2,1.7262112E-1,-4.192727E-2,5.5206608E-2,-2.501917E-1,1.1708367E-1,-1.1723326E-1,-1.6788217E-1,7.9933755E-2],"split_indices":[20,10,2,2,30,30,30,30,32,25,28,32,32,5,4,0,0,0,0,0,0,0,0,0,0,0,0,0,0,0,0],"split_type":[0,0,0,0,0,0,0,0,0,0,0,0,0,0,0,0,0,0,0,0,0,0,0,0,0,0,0,0,0,0,0],"sum_hessian":[3.7580756E2,1.7614096E2,1.9966658E2,1.2585681E2,5.0284157E1,1.04313896E2,9.5352684E1,3.659188E1,8.926493E1,1.4865794E1,3.541836E1,9.520398E1,9.10992E0,5.183293E1,4.3519756E1,3.218026E1,4.4116235E0,4.816822E0,8.4448105E1,5.0959406E0,9.769854E0,3.1131979E1,4.2863846E0,8.00482E1,1.5155781E1,2.4932916E0,6.616628E0,4.0103783E1,1.1729147E1,3.4878265E1,8.641489E0],"tree_param":{"num_deleted":"0","num_feature":"33","num_nodes":"31","size_leaf_vector":"1"}},{"base_weights":[-4.674378E-3,3.171445E-2,-7.163625E-1,-8.447467E-2,2.9204372E-1,-2.66219E-1,-9.773636E-1,-1.6318405E-2,-6.400743E-1,6.5763915E-1,9.140233E-2,1.9966924E-1,-5.3642327E-1,-1.0541688E0,-4.273329E-2,1.206787E-2,-1.9744407E-1,-2.3889308E-1,1.15491614E-1,2.611918E-1,6.62338E-2,-1.3544996E-1,7.678275E-2,-1.1262896E-1,2.0951991E-1,3.3551037E-2,-2.24191E-1,-3.333609E-1,-8.740257E-2],"categories":[],"categories_nodes":[],"categories_segments":[],"categories_sizes":[],"default_left":[0,0,0,0,0,0,0,0,0,0,0,0,0,0,0,0,0,0,0,0,0,0,0,0,0,0,0,0,0],"id":23,"left_children":[1,3,5,7,9,11,13,15,17,19,21,23,25,27,-1,-1,-1,-1,-1,-1,-1,-1,-1,-1,-1,-1,-1,-1,-1],"loss_changes":[9.598355E0,1.0693637E1,1.8579121E0,9.25396E0,7.940604E0,1.1130555E0,5.5761623E-1,7.9724593E0,4.5835648E0,3.3890266E0,6.5100746E0,1.3125551E0,8.120682E-1,1.0921097E-1,0E0,0E0,0E0,0E0,0E0,0E0,0E0,0E0,0E0,0E0,0E0,0E0,0E0,0E0,0E0],"parents":[2147483647,0,0,1,1,2,2,3,3,4,4,5,5,6,6,7,7,8,8,9,9,10,10,11,11,12,12,13,13],"right_children":[2,4,6,8,10,12,14,16,18,20,22,24,26,28,-1,-1,-1,-1,-1,-1,-1,-1,-1,-1,-1,-1,-1,-1,-1],"split_conditions":[4.280616E0,5.4694945E-1,-7.919236E-1,3.6227852E-1,-2.9034773E-1,-3.4005886E-1,1.5640585E0,2.9958408E0,2.0146868E0,1.410516E-1,-7.4102575E-1,-1.0203883E-1,-3.7115824E-1,1.1130441E0,-4.273329E-2,1.206787E-2,-1.9744407E-1,-2.3889308E-1,1.15491614E-1,2.611918E-1,6.62338E-2,-1.3544996E-1,7.678275E-2,-1.1262896E-1,2.0951991E-1,3.3551037E-2,-2.24191E-1,-3.333609E-1,-8.740257E-2],"split_indices":[16,25,32,6,30,26,20,18,28,6,5,15,9,26,0,0,0,0,0,0,0,0,0,0,0,0,0,0,0],"split_type":[0,0,0,0,0,0,0,0,0,0,0,0,0,0,0,0,0,0,0,0,0,0,0,0,0,0,0,0,0],"sum_hessian":[3.687514E2,3.517231E2,1.7028273E1,2.4365257E2,1.0807054E2,6.9910097E0,1.0037263E1,2.1794617E2,2.5706417E1,3.748683E1,7.058371E1,2.6620781E0,4.328932E0,8.95123E0,1.0860335E0,2.0116132E2,1.6784845E1,2.2500132E1,3.2062867E0,2.4532537E1,1.2954294E1,1.6011051E1,5.4572655E1,1.3512013E0,1.3108767E0,1.1778387E0,3.1510932E0,7.9036107E0,1.047619E0],"tree_param":{"num_deleted":"0","num_feature":"33","num_nodes":"29","size_leaf_vector":"1"}},{"base_weights":[-5.6571737E-3,6.0768414E-1,-4.8622392E-2,1.0079396E0,-3.215551E-1,2.4529569E-2,-4.221323E-1,-7.7242196E-2,1.1904539E0,1.9787404E-1,-5.6038576E-1,-1.0169466E-1,2.4834104E-1,-4.9413386E-1,2.7626178E-1,1.7526087E-1,4.2083785E-1,-2.544477E-1,2.3695515E-2,-1.4649758E-2,-2.4876314E-1,-1.9532903E-1,9.81672E-2,-2.2213246E-1,1.115429E-2],"categories":[],"categories_nodes":[],"categories_segments":[],"categories_sizes":[],"default_left":[0,0,0,0,0,0,0,0,0,0,0,0,0,0,0,0,0,0,0,0,0,0,0,0,0],"id":24,"left_children":[1,3,5,7,9,11,13,-1,15,-1,17,19,21,23,-1,-1,-1,-1,-1,-1,-1,-1,-1,-1,-1],"loss_changes":[9.51214E0,9.113256E0,9.223877E0,4.177002E0,2.214331E0,8.018056E0,5.8006268E0,0E0,1.0887756E0,0E0,1.3313832E0,6.9439383E0,7.4723353E0,6.979039E0,0E0,0E0,0E0,0E0,0E0,0E0,0E0,0E0,0E0,0E0,0E0],"parents":[2147483647,0,0,1,1,2,2,3,3,4,4,5,5,6,6,8,8,10,10,11,11,12,12,13,13],"right_children":[2,4,6,8,10,12,14,-1,16,-1,18,20,22,24,-1,-1,-1,-1,-1,-1,-1,-1,-1,-1,-1],"split_conditions":[-1.4676247E0,1.2826334E0,4.449415E-1,-4.6902004E-1,-8.774573E-1,4.102896E-1,3.7055602E0,-7.7242196E-2,-6.870327E-1,1.9787404E-1,-5.279372E-1,3.179829E0,-6.210977E-1,1.1944705E0,2.7626178E-1,1.7526087E-1,4.2083785E-1,-2.544477E-1,2.3695515E-2,-1.4649758E-2,-2.4876314E-1,-1.9532903E-1,9.81672E-2,-2.2213246E-1,1.115429E-2],"split_indices":[2,30,30,1,32,19,23,0,31,0,32,3,25,25,0,0,0,0,0,0,0,0,0,0,0],"split_type":[0,0,0,0,0,0,0,0,0,0,0,0,0,0,0,0,0,0,0,0,0,0,0,0,0],"sum_hessian":[3.5883878E2,2.2630991E1,3.362078E2,1.5758547E1,6.872444E0,2.8192673E2,5.4281055E1,1.9346272E0,1.3823919E1,1.0005203E0,5.871924E0,1.8061172E2,1.01315E2,5.2118908E1,2.1621451E0,4.5589333E0,9.264986E0,3.8241615E0,2.0477624E0,1.6937207E2,1.1239647E1,7.5842338E0,9.373077E1,3.53416E1,1.6777311E1],"tree_param":{"num_deleted":"0","num_feature":"33","num_nodes":"25","size_leaf_vector":"1"}},{"base_weights":[-5.272653E-3,-1.0806738E-1,2.1040748E-1,2.9047057E-1,-1.8646593E-1,3.035171E-1,-2.7615234E-1,-4.8380896E-2,6.0770094E-1,-2.3283502E-1,7.166535E-1,2.3912682E-1,3.3088115E-1,-6.845205E-1,1.0062349E-1,-1.3949291E-1,1.5513115E-1,-1.2815402E-1,2.2246917E-1,-1.338171E-1,-1.7931156E-2,2.5456905E-1,-9.078566E-3,1.2376299E-1,-3.958097E-2,-2.92289E-1,-5.124835E-2,-8.4750764E-2,2.8094295E-1],"categories":[],"categories_nodes":[],"categories_segments":[],"categories_sizes":[],"default_left":[0,0,0,0,0,0,0,0,0,0,0,0,0,0,0,0,0,0,0,0,0,0,0,0,0,0,0,0,0],"id":25,"left_children":[1,3,5,7,9,11,13,15,17,19,21,23,-1,25,27,-1,-1,-1,-1,-1,-1,-1,-1,-1,-1,-1,-1,-1,-1],"loss_changes":[7.8538713E0,7.5488625E0,5.2641897E0,4.309887E0,8.58618E0,4.701398E0,2.9754877E0,4.9945226E0,3.1761193E0,7.057843E0,1.0172062E0,5.880812E0,0E0,1.2020736E0,3.6902382E0,0E0,0E0,0E0,0E0,0E0,0E0,0E0,0E0,0E0,0E0,0E0,0E0,0E0,0E0],"parents":[2147483647,0,0,1,1,2,2,3,3,4,4,5,5,6,6,7,7,8,8,9,9,10,10,11,11,13,13,14,14],"right_children":[2,4,6,8,10,12,14,16,18,20,22,24,-1,26,28,-1,-1,-1,-1,-1,-1,-1,-1,-1,-1,-1,-1,-1,-1],"split_conditions":[1.0836904E-1,-1.1987286E0,-1.5897858E-1,-5.3604264E-2,2.0069466E0,3.2654011E0,-3.8829E-1,6.0848886E-1,-6.841799E-1,1.1257806E-2,8.757387E-1,1.6452159E-1,3.3088115E-1,5.540555E-1,8.466509E-1,-1.3949291E-1,1.5513115E-1,-1.2815402E-1,2.2246917E-1,-1.338171E-1,-1.7931156E-2,2.5456905E-1,-9.078566E-3,1.2376299E-1,-3.958097E-2,-2.92289E-1,-5.124835E-2,-8.4750764E-2,2.8094295E-1],"split_indices":[28,30,32,25,25,23,24,20,23,20,22,30,0,13,15,0,0,0,0,0,0,0,0,0,0,0,0,0,0],"split_type":[0,0,0,0,0,0,0,0,0,0,0,0,0,0,0,0,0,0,0,0,0,0,0,0,0,0,0,0,0],"sum_hessian":[3.5221866E2,2.3887029E2,1.1334838E2,3.882071E1,2.0004958E2,9.545752E1,1.789086E1,1.9180468E1,1.9640242E1,1.9098593E2,9.063651E0,8.95442E1,5.9133263E0,8.193527E0,9.697331E0,1.1146514E1,8.033955E0,1.9985409E0,1.7641699E1,8.485902E1,1.0612691E2,7.587551E0,1.4760998E0,6.094825E1,2.8595947E1,4.6652102E0,3.5283172E0,7.103399E0,2.5939329E0],"tree_param":{"num_deleted":"0","num_feature":"33","num_nodes":"29","size_leaf_vector":"1"}},{"base_weights":[-2.1401122E-3,9.825656E-2,-2.6788375E-1,-1.5493505E-1,2.6640698E-1,4.5375615E-1,-3.8056225E-1,-2.5613225E-1,2.9241386E-1,8.476871E-2,5.1584196E-1,8.953575E-1,6.47664E-3,-2.713371E-1,-1.1888287E0,1.6580874E-2,-1.3501757E-1,3.5120746E-1,3.3177022E-2,-1.2675251E-1,6.4888425E-2,2.557641E-1,7.4567206E-2,3.1862435E-1,6.853462E-2,-1.7404056E-1,1.1914361E-1,2.391002E-2,-1.34544E-1,-3.8503972E-1,-8.6595595E-2],"categories":[],"categories_nodes":[],"categories_segments":[],"categories_sizes":[],"default_left":[0,0,0,0,0,0,0,0,0,0,0,0,0,0,0,0,0,0,0,0,0,0,0,0,0,0,0,0,0,0,0],"id":26,"left_children":[1,3,5,7,9,11,13,15,17,19,21,23,25,27,29,-1,-1,-1,-1,-1,-1,-1,-1,-1,-1,-1,-1,-1,-1,-1,-1],"loss_changes":[9.193579E0,1.0689865E1,7.855595E0,4.6223173E0,6.782568E0,2.6047742E0,6.940336E0,5.0040617E0,2.9043925E0,5.9880204E0,5.4838734E0,4.9603748E-1,1.966018E0,4.6230593E0,4.3867207E-1,0E0,0E0,0E0,0E0,0E0,0E0,0E0,0E0,0E0,0E0,0E0,0E0,0E0,0E0,0E0,0E0],"parents":[2147483647,0,0,1,1,2,2,3,3,4,4,5,5,6,6,7,7,8,8,9,9,10,10,11,11,12,12,13,13,14,14],"right_children":[2,4,6,8,10,12,14,16,18,20,22,24,26,28,30,-1,-1,-1,-1,-1,-1,-1,-1,-1,-1,-1,-1,-1,-1,-1,-1],"split_conditions":[8.0528516E-1,-3.0072525E-1,-1.6296409E0,1.4917719E0,-1.12658635E-1,-4.0067253E-1,1.8127172E0,-3.1722182E-1,-1.174734E0,-8.248657E-1,-6.046852E-1,-2.2126582E-2,-2.3612166E-2,-5.940605E-1,9.484872E-1,1.6580874E-2,-1.3501757E-1,3.5120746E-1,3.3177022E-2,-1.2675251E-1,6.4888425E-2,2.557641E-1,7.4567206E-2,3.1862435E-1,6.853462E-2,-1.7404056E-1,1.1914361E-1,2.391002E-2,-1.34544E-1,-3.8503972E-1,-8.6595595E-2],"split_indices":[2,5,30,4,23,32,5,10,12,20,32,22,13,15,12,0,0,0,0,0,0,0,0,0,0,0,0,0,0,0,0],"split_type":[0,0,0,0,0,0,0,0,0,0,0,0,0,0,0,0,0,0,0,0,0,0,0,0,0,0,0,0,0,0,0],"sum_hessian":[3.426032E2,2.491179E2,9.34853E1,9.945007E1,1.4966783E2,1.2216806E1,8.1268486E1,8.145186E1,1.7998217E1,8.737864E1,6.228919E1,5.6433315E0,6.573475E0,7.277036E1,8.498127E0,3.1532612E1,4.9919247E1,2.154168E0,1.58440485E1,1.7535269E1,6.9843376E1,2.659595E1,3.569324E1,4.0406475E0,1.602684E0,2.433881E0,4.139594E0,2.4590466E1,4.8179897E1,7.3044095E0,1.1937175E0],"tree_param":{"num_deleted":"0","num_feature":"33","num_nodes":"31","size_leaf_vector":"1"}},{"base_weights":[-7.900787E-4,4.7996502E-2,-4.7958037E-1,-8.662665E-2,2.4109209E-1,4.2686385E-1,-5.646406E-1,2.5556865E-1,-1.9100931E-1,3.675347E-1,-4.4221107E-2,1.9535331E-1,1.8938334E-3,-6.976058E-1,1.1317859E-1,1.08455814E-1,-2.1786183E-1,-1.3231756E-1,-6.1366833E-3,1.6965578E-1,7.0326957E-3,2.8823715E-1,-4.7912665E-2,-2.3735674E-1,3.996577E-2,-1.20251805E-1,1.3153663E-1],"categories":[],"categories_nodes":[],"categories_segments":[],"categories_sizes":[],"default_left":[0,0,0,0,0,0,0,0,0,0,0,0,0,0,0,0,0,0,0,0,0,0,0,0,0,0,0],"id":27,"left_children":[1,3,5,7,9,11,13,15,17,19,21,-1,-1,23,25,-1,-1,-1,-1,-1,-1,-1,-1,-1,-1,-1,-1],"loss_changes":[7.9588194E0,8.059391E0,2.6703358E0,6.5832314E0,4.608442E0,3.0460072E-1,2.71381E0,4.7548876E0,5.993546E0,6.0029325E0,4.7940106E0,0E0,0E0,2.01655E0,1.1212299E0,0E0,0E0,0E0,0E0,0E0,0E0,0E0,0E0,0E0,0E0,0E0,0E0],"parents":[2147483647,0,0,1,1,2,2,3,3,4,4,5,5,6,6,7,7,8,8,9,9,10,10,13,13,14,14],"right_children":[2,4,6,8,10,12,14,16,18,20,22,-1,-1,24,26,-1,-1,-1,-1,-1,-1,-1,-1,-1,-1,-1,-1],"split_conditions":[2.9958408E0,3.2240683E-1,-1.4481981E0,-9.345159E-1,1.2406509E0,4.617145E-1,1.0355021E0,1.3998451E0,-3.19312E-1,1.728515E-1,-1.4093449E0,1.9535331E-1,1.8938334E-3,1.6051998E0,-2.3709863E-1,1.08455814E-1,-2.1786183E-1,-1.3231756E-1,-6.1366833E-3,1.6965578E-1,7.0326957E-3,2.8823715E-1,-4.7912665E-2,-2.3735674E-1,3.996577E-2,-1.20251805E-1,1.3153663E-1],"split_indices":[18,25,2,6,10,10,23,0,23,30,2,0,0,25,7,0,0,0,0,0,0,0,0,0,0,0,0],"split_type":[0,0,0,0,0,0,0,0,0,0,0,0,0,0,0,0,0,0,0,0,0,0,0,0,0,0,0],"sum_hessian":[3.3873874E2,3.0823114E2,3.0507614E1,1.8193816E2,1.26292984E2,2.2724867E0,2.8235126E1,4.218749E1,1.3975066E2,8.731105E1,3.8981926E1,1.1243751E0,1.1481116E0,2.358028E1,4.6548467E0,3.864842E1,3.5390718E0,5.6025497E1,8.372517E1,5.5013668E1,3.2297386E1,3.2633958E0,3.5718533E1,2.1235989E1,2.3442926E0,1.7140001E0,2.9408467E0],"tree_param":{"num_deleted":"0","num_feature":"33","num_nodes":"27","size_leaf_vector":"1"}},{"base_weights":[-6.0857093E-4,3.3771288E-2,-7.063173E-1,6.92056E-2,-5.878731E-1,-3.081935E-1,-9.299636E-1,2.0875247E-1,-1.03996694E-1,-7.893834E-1,4.1744763E-1,-5.4687804E-1,1.0431228E-1,-3.1272918E-1,-7.90137E-2,2.3488833E-1,4.304203E-2,3.9585445E-2,-1.0405018E-1,-2.7075878E-1,2.630308E-3,1.9701098E-1,-2.5131926E-2,-2.2414605E-1,2.6156537E-2,-1.13675214E-1,1.7735203E-1],"categories":[],"categories_nodes":[],"categories_segments":[],"categories_sizes":[],"default_left":[0,0,0,0,0,0,0,0,0,0,0,0,0,0,0,0,0,0,0,0,0,0,0,0,0,0,0],"id":28,"left_children":[1,3,5,7,9,11,13,15,17,19,21,23,25,-1,-1,-1,-1,-1,-1,-1,-1,-1,-1,-1,-1,-1,-1],"loss_changes":[8.08208E0,7.0378866E0,1.0912118E0,7.3070154E0,3.8211613E0,7.5233126E-1,4.3110085E-1,6.1572595E0,7.790025E0,1.3357601E0,4.785722E-1,6.5354383E-1,1.030538E0,0E0,0E0,0E0,0E0,0E0,0E0,0E0,0E0,0E0,0E0,0E0,0E0,0E0,0E0],"parents":[2147483647,0,0,1,1,2,2,3,3,4,4,5,5,6,6,7,7,8,8,9,9,10,10,11,11,12,12],"right_children":[2,4,6,8,10,12,14,16,18,20,22,24,26,-1,-1,-1,-1,-1,-1,-1,-1,-1,-1,-1,-1,-1,-1],"split_conditions":[4.280616E0,6.0896378E-2,-7.919236E-1,-2.0865588E-1,4.346381E0,-1.1222745E-1,1.1962965E0,-4.5744252E-1,-2.6317674E-1,1.3410659E0,5.2850757E-2,4.048615E-2,9.8863524E-1,-3.1272918E-1,-7.90137E-2,2.3488833E-1,4.304203E-2,3.9585445E-2,-1.0405018E-1,-2.7075878E-1,2.630308E-3,1.9701098E-1,-2.5131926E-2,-2.2414605E-1,2.6156537E-2,-1.13675214E-1,1.7735203E-1],"split_indices":[16,32,32,30,28,12,5,2,2,15,22,28,1,0,0,0,0,0,0,0,0,0,0,0,0,0,0],"split_type":[0,0,0,0,0,0,0,0,0,0,0,0,0,0,0,0,0,0,0,0,0,0,0,0,0,0,0],"sum_hessian":[3.3113138E2,3.16657E2,1.4474365E1,3.004214E2,1.6235626E1,6.061691E0,8.412674E0,1.6626143E2,1.3415996E2,1.3703616E1,2.53201E0,3.6335158E0,2.428175E0,6.715748E0,1.6969265E0,1.5849726E1,1.504117E2,6.8276764E1,6.58832E1,1.188765E1,1.8159667E0,1.5039148E0,1.0280952E0,2.6257863E0,1.0077295E0,1.3299041E0,1.0982708E0],"tree_param":{"num_deleted":"0","num_feature":"33","num_nodes":"27","size_leaf_vector":"1"}},{"base_weights":[-3.44771E-3,-6.449506E-2,3.114651E-1,-2.463397E-3,-4.5277098E-1,-2.4258687E-1,3.6028266E-1,-1.1085523E-1,2.652563E-1,3.692431E-2,-7.380577E-1,5.1583976E-1,-4.5080043E-2,1.4637697E-2,-9.464614E-2,2.1307065E-1,3.7135765E-2,1.07815884E-1,-1.671202E-1,-2.518614E-1,6.438247E-2,1.2987394E-2,2.1550429E-1,2.589959E-1,-8.579745E-2],"categories":[],"categories_nodes":[],"categories_segments":[],"categories_sizes":[],"default_left":[0,0,0,0,0,0,0,0,0,0,0,0,0,0,0,0,0,0,0,0,0,0,0,0,0],"id":29,"left_children":[1,3,5,7,9,-1,11,13,15,17,19,21,23,-1,-1,-1,-1,-1,-1,-1,-1,-1,-1,-1,-1],"loss_changes":[6.303676E0,6.6129E0,3.2027555E0,6.929572E0,5.3112183E0,0E0,3.284114E0,5.567885E0,4.2445173E0,3.049483E0,2.4952936E0,3.5528603E0,3.5866568E0,0E0,0E0,0E0,0E0,0E0,0E0,0E0,0E0,0E0,0E0,0E0,0E0],"parents":[2147483647,0,0,1,1,2,2,3,3,4,4,6,6,7,7,8,8,9,9,10,10,11,11,12,12],"right_children":[2,4,6,8,10,-1,12,14,16,18,20,22,24,-1,-1,-1,-1,-1,-1,-1,-1,-1,-1,-1,-1],"split_conditions":[1.3251661E0,4.349213E-1,-1.4403179E0,5.35022E-1,-5.8911186E-1,-2.4258687E-1,-3.5627657E-1,-4.522513E-1,-6.2762135E-1,4.611264E-2,2.3684492E0,-7.5395423E-1,-1.0245422E0,1.4637697E-2,-9.464614E-2,2.1307065E-1,3.7135765E-2,1.07815884E-1,-1.671202E-1,-2.518614E-1,6.438247E-2,1.2987394E-2,2.1550429E-1,2.589959E-1,-8.579745E-2],"split_indices":[20,6,12,25,32,0,32,30,30,12,28,11,12,0,0,0,0,0,0,0,0,0,0,0,0],"split_type":[0,0,0,0,0,0,0,0,0,0,0,0,0,0,0,0,0,0,0,0,0,0,0,0,0],"sum_hessian":[3.2585156E2,2.7360678E2,5.2244778E1,2.3678407E2,3.6822704E1,1.5319093E0,5.0712868E1,1.6896219E2,6.782189E1,1.3875665E1,2.294704E1,3.645197E1,1.4260901E1,9.534135E1,7.362084E1,1.5390965E1,5.2430927E1,9.249387E0,4.6262774E0,2.0845299E1,2.1017423E0,1.1299221E1,2.5152746E1,2.4477324E0,1.1813169E1],"tree_param":{"num_deleted":"0","num_feature":"33","num_nodes":"25","size_leaf_vector":"1"}},{"base_weights":[-3.0264626E-3,-4.9769904E-2,4.1978416E-1,-1.1903131E-1,2.561215E-1,5.877381E-1,-1.07533954E-1,2.8419407E-2,-4.6338308E-1,3.8801548E-1,-2.5281549E-1,-4.7735695E-2,7.644276E-1,-4.6314073E-1,4.6792907E-1,-2.033475E-2,2.3837636E-1,-1.5196165E-1,2.529996E-1,1.5320624E-1,-4.9135264E-2,2.5839102E-1,-1.512713E-1,1.2879513E-1,-1.341549E-1,-7.398532E-2,2.5377914E-1,-2.5742885E-1,1.1250818E-2,2.6656273E-1,-3.5531126E-2],"categories":[],"categories_nodes":[],"categories_segments":[],"categories_sizes":[],"default_left":[0,0,0,0,0,0,0,0,0,0,0,0,0,0,0,0,0,0,0,0,0,0,0,0,0,0,0,0,0,0,0],"id":30,"left_children":[1,3,5,7,9,11,13,15,17,19,21,23,25,27,29,-1,-1,-1,-1,-1,-1,-1,-1,-1,-1,-1,-1,-1,-1,-1,-1],"loss_changes":[6.3218503E0,6.1316013E0,2.8834414E0,1.1970101E1,3.6881983E0,2.765606E0,1.9638546E0,1.2276491E1,4.411935E0,2.9855285E0,3.6873388E0,1.3789835E0,1.7806177E0,1.1749568E0,1.0321472E0,0E0,0E0,0E0,0E0,0E0,0E0,0E0,0E0,0E0,0E0,0E0,0E0,0E0,0E0,0E0,0E0],"parents":[2147483647,0,0,1,1,2,2,3,3,4,4,5,5,6,6,7,7,8,8,9,9,10,10,11,11,12,12,13,13,14,14],"right_children":[2,4,6,8,10,12,14,16,18,20,22,24,26,28,30,-1,-1,-1,-1,-1,-1,-1,-1,-1,-1,-1,-1,-1,-1,-1,-1],"split_conditions":[1.4965465E0,1.4917719E0,2.7871418E-1,7.8418416E-1,2.866151E-1,-5.7207644E-1,-1.1930861E-1,7.659637E-2,2.8218896E0,1.0574957E0,-6.5552604E-1,-8.798634E-1,-1.4220967E0,-2.2763462E-1,-6.31337E-2,-2.033475E-2,2.3837636E-1,-1.5196165E-1,2.529996E-1,1.5320624E-1,-4.9135264E-2,2.5839102E-1,-1.512713E-1,1.2879513E-1,-1.341549E-1,-7.398532E-2,2.5377914E-1,-2.5742885E-1,1.1250818E-2,2.6656273E-1,-3.5531126E-2],"split_indices":[28,4,22,4,24,25,11,4,22,0,23,30,20,20,26,0,0,0,0,0,0,0,0,0,0,0,0,0,0,0,0],"split_type":[0,0,0,0,0,0,0,0,0,0,0,0,0,0,0,0,0,0,0,0,0,0,0,0,0,0,0,0,0,0,0],"sum_hessian":[3.1781592E2,2.8697226E2,3.0843668E1,2.3448898E2,5.2483253E1,2.3305992E1,7.5376754E0,1.6482762E2,6.966138E1,4.187E1,1.0613256E1,5.2290945E0,1.8076899E1,4.7794223E0,2.758253E0,1.4725008E2,1.7577536E1,6.802706E1,1.6343135E0,3.4315693E1,7.554304E0,1.5074806E0,9.105776E0,2.3489761E0,2.8801184E0,1.1973883E0,1.6879509E1,2.2725954E0,2.506827E0,1.3060544E0,1.4521986E0],"tree_param":{"num_deleted":"0","num_feature":"33","num_nodes":"31","size_leaf_vector":"1"}},{"base_weights":[-9.2913426E-5,-2.9713643E-1,6.51246E-2,7.340421E-1,-3.6119652E-1,1.551321E-1,-3.0336526E-1,3.5027227E-1,-1.3140224E-2,-1.5078104E-1,-6.6324985E-1,1.8907996E-1,-6.4691716E-1,3.6732793E-1,-4.4461522E-1,8.656239E-2,-1.513589E-1,-3.2561672E-1,-1.2814337E-1,1.23756E-1,1.6835893E-2,-2.544983E-1,-7.749839E-2,-5.4884426E-2,1.8449387E-1,-2.5778845E-1,-8.072154E-2],"categories":[],"categories_nodes":[],"categories_segments":[],"categories_sizes":[],"default_left":[0,0,0,0,0,0,0,0,0,0,0,0,0,0,0,0,0,0,0,0,0,0,0,0,0,0,0],"id":31,"left_children":[1,3,5,7,9,11,13,-1,-1,15,17,19,21,23,25,-1,-1,-1,-1,-1,-1,-1,-1,-1,-1,-1,-1],"loss_changes":[6.110439E0,4.016175E0,8.625194E0,1.2823628E0,3.3405395E0,5.799999E0,5.0053463E0,0E0,0E0,5.3053246E0,1.7223825E0,5.9432626E0,4.6128678E-1,1.3988453E0,2.87506E0,0E0,0E0,0E0,0E0,0E0,0E0,0E0,0E0,0E0,0E0,0E0,0E0],"parents":[2147483647,0,0,1,1,2,2,3,3,4,4,5,5,6,6,9,9,10,10,11,11,12,12,13,13,14,14],"right_children":[2,4,6,8,10,12,14,-1,-1,16,18,20,22,24,26,-1,-1,-1,-1,-1,-1,-1,-1,-1,-1,-1,-1],"split_conditions":[-8.290858E-1,-2.2641144E0,1.0772573E0,-3.2927227E-1,2.5060419E-2,4.280616E0,-1.6296409E0,3.5027227E-1,-1.3140224E-2,4.764854E-2,-4.5205823E-1,-6.974152E-1,8.3086294E-1,-1.0382164E-2,-6.8805605E-1,8.656239E-2,-1.513589E-1,-3.2561672E-1,-1.2814337E-1,1.23756E-1,1.6835893E-2,-2.544983E-1,-7.749839E-2,-5.4884426E-2,1.8449387E-1,-2.5778845E-1,-8.072154E-2],"split_indices":[5,2,2,28,30,16,30,0,0,2,23,32,1,27,26,0,0,0,0,0,0,0,0,0,0,0,0],"split_type":[0,0,0,0,0,0,0,0,0,0,0,0,0,0,0,0,0,0,0,0,0,0,0,0,0,0,0],"sum_hessian":[3.134203E2,5.5784565E1,2.576357E2,2.6510966E0,5.3133465E1,2.0752466E2,5.0111065E1,1.3805842E0,1.2705122E0,3.2200935E1,2.0932531E1,1.998308E2,7.693866E0,8.439148E0,4.1671913E1,1.4445421E1,1.7755512E1,6.2180524E0,1.4714479E1,7.376538E1,1.26065414E2,4.2881627E0,3.4057033E0,2.7003355E0,5.738813E0,1.123555E1,3.0436365E1],"tree_param":{"num_deleted":"0","num_feature":"33","num_nodes":"27","size_leaf_vector":"1"}},{"base_weights":[-2.6426136E-3,3.393727E-2,-5.520851E-1,-1.626935E-1,1.4455864E-1,-7.83964E-1,3.9219335E-1,-5.426525E-1,-3.117145E-2,1.7672837E-1,-6.185738E-1,-1.0112011E0,-1.3081444E-2,-8.275172E-2,6.677667E-1,-1.9058542E-2,-2.1929264E-1,-1.4744781E-1,2.5500806E-2,5.637246E-3,1.0418049E-1,-1.2708015E-2,-2.360252E-1,-8.183038E-2,-3.4144568E-1,1.8917312E-1,-1.5552883E-1,4.7462743E-2,2.478512E-1],"categories":[],"categories_nodes":[],"categories_segments":[],"categories_sizes":[],"default_left":[0,0,0,0,0,0,0,0,0,0,0,0,0,0,0,0,0,0,0,0,0,0,0,0,0,0,0,0,0],"id":32,"left_children":[1,3,5,7,9,11,13,15,17,19,21,23,25,-1,27,-1,-1,-1,-1,-1,-1,-1,-1,-1,-1,-1,-1,-1,-1],"loss_changes":[6.2501802E0,6.367003E0,4.557683E0,5.2536645E0,4.704173E0,2.775117E0,1.011401E0,2.3951163E0,4.2883873E0,4.8517303E0,7.218578E-1,8.407984E-1,1.8351943E0,0E0,1.4965785E-1,0E0,0E0,0E0,0E0,0E0,0E0,0E0,0E0,0E0,0E0,0E0,0E0,0E0,0E0],"parents":[2147483647,0,0,1,1,2,2,3,3,4,4,5,5,6,6,7,7,8,8,9,9,10,10,11,11,12,12,14,14],"right_children":[2,4,6,8,10,12,14,16,18,20,22,24,26,-1,28,-1,-1,-1,-1,-1,-1,-1,-1,-1,-1,-1,-1,-1,-1],"split_conditions":[3.179829E0,-3.4708083E-1,1.1257516E0,-1.2885605E-1,1.3243997E0,1.017901E0,-3.2887712E-1,-5.7395685E-1,-8.049332E-1,1.3245812E-1,-7.919236E-1,-7.312623E-1,-7.388464E-1,-8.275172E-2,-5.762535E-1,-1.9058542E-2,-2.1929264E-1,-1.4744781E-1,2.5500806E-2,5.637246E-3,1.0418049E-1,-1.2708015E-2,-2.360252E-1,-8.183038E-2,-3.4144568E-1,1.8917312E-1,-1.5552883E-1,4.7462743E-2,2.478512E-1],"split_indices":[3,20,25,1,30,19,26,24,19,1,32,31,32,0,11,0,0,0,0,0,0,0,0,0,0,0,0,0,0],"split_type":[0,0,0,0,0,0,0,0,0,0,0,0,0,0,0,0,0,0,0,0,0,0,0,0,0,0,0,0,0],"sum_hessian":[3.0904456E2,2.9063348E2,1.8411089E1,1.0446859E2,1.8616487E2,1.4917654E1,3.493435E0,2.6059212E1,7.840938E1,1.793719E2,6.7929764E0,1.1280652E1,3.6370018E0,1.0199511E0,2.4734838E0,7.730051E0,1.832916E1,1.5149859E1,6.325952E1,9.370323E1,8.566866E1,1.8175377E0,4.9754386E0,2.1167598E0,9.163893E0,1.4906116E0,2.14639E0,1.0605742E0,1.4129096E0],"tree_param":{"num_deleted":"0","num_feature":"33","num_nodes":"29","size_leaf_vector":"1"}},{"base_weights":[-5.572556E-3,3.7047572E-2,-4.3270537E-1,1.965904E-1,-8.218173E-2,-2.616227E-1,-9.036835E-1,4.6849287E-1,-5.790705E-3,6.2499676E-2,-3.4164307E-1,-4.1439703E-1,4.2604426E-1,2.1593288E-2,-3.368028E-1,2.0525204E-1,1.9492814E-2,5.4622415E-2,-1.0660613E-1,8.68688E-4,2.4307632E-1,-1.4508994E-1,7.198594E-2,1.2020506E-1,-1.6161525E-1,-4.258574E-2,2.0870584E-1],"categories":[],"categories_nodes":[],"categories_segments":[],"categories_sizes":[],"default_left":[0,0,0,0,0,0,0,0,0,0,0,0,0,0,0,0,0,0,0,0,0,0,0,0,0,0,0],"id":33,"left_children":[1,3,5,7,9,11,13,15,17,19,21,23,25,-1,-1,-1,-1,-1,-1,-1,-1,-1,-1,-1,-1,-1,-1],"loss_changes":[5.5543423E0,5.2957087E0,1.9940176E0,6.5510464E0,6.0106235E0,2.457645E0,1.569695E0,4.3758936E0,4.609747E0,4.600548E0,4.845605E0,2.067455E0,7.787631E-1,0E0,0E0,0E0,0E0,0E0,0E0,0E0,0E0,0E0,0E0,0E0,0E0,0E0,0E0],"parents":[2147483647,0,0,1,1,2,2,3,3,4,4,5,5,6,6,7,7,8,8,9,9,10,10,11,11,12,12],"right_children":[2,4,6,8,10,12,14,16,18,20,22,24,26,-1,-1,-1,-1,-1,-1,-1,-1,-1,-1,-1,-1,-1,-1],"split_conditions":[2.9958408E0,1.2535486E-1,1.1317232E0,-3.1722182E-1,-4.2577934E-1,1.0272225E0,-7.727453E-1,-5.406697E-1,3.2390293E-1,9.8895735E-1,1.276453E0,-7.219629E-1,-2.3709863E-1,2.1593288E-2,-3.368028E-1,2.0525204E-1,1.9492814E-2,5.4622415E-2,-1.0660613E-1,8.68688E-4,2.4307632E-1,-1.4508994E-1,7.198594E-2,1.2020506E-1,-1.6161525E-1,-4.258574E-2,2.0870584E-1],"split_indices":[18,2,13,10,30,28,31,32,30,25,25,7,7,0,0,0,0,0,0,0,0,0,0,0,0,0,0],"split_type":[0,0,0,0,0,0,0,0,0,0,0,0,0,0,0,0,0,0,0,0,0,0,0,0,0,0,0],"sum_hessian":[3.0322833E2,2.765472E2,2.6681143E1,1.18000206E2,1.58547E2,2.0712734E1,5.968408E0,4.9790676E1,6.820953E1,1.0227519E2,5.62718E1,1.727275E1,3.4399838E0,1.2171324E0,4.751276E0,3.199419E1,1.7796486E1,4.4677612E1,2.353192E1,9.565438E1,6.620805E0,4.5364914E1,1.0906886E1,1.9916881E0,1.5281063E1,1.2597951E0,2.1801887E0],"tree_param":{"num_deleted":"0","num_feature":"33","num_nodes":"27","size_leaf_vector":"1"}},{"base_weights":[-3.868047E-3,-6.1716225E-2,2.8993484E-1,-1.3248928E-1,2.2685254E-1,4.129829E-1,-1.456137E-1,-1.5974815E-1,6.877087E-1,-5.873609E-1,3.0388018E-1,4.807378E-1,-1.84794E-1,1.6471015E-1,-3.066832E-1,6.2402003E-2,-6.8621516E-2,2.6445264E-1,3.7432536E-2,1.643271E-2,-2.603155E-1,1.3982284E-1,-4.1643273E-2,2.4603055E-1,9.231245E-2,-1.5042211E-1,7.9511926E-2],"categories":[],"categories_nodes":[],"categories_segments":[],"categories_sizes":[],"default_left":[0,0,0,0,0,0,0,0,0,0,0,0,0,0,0,0,0,0,0,0,0,0,0,0,0,0,0],"id":34,"left_children":[1,3,5,7,9,11,13,15,17,19,21,23,-1,-1,25,-1,-1,-1,-1,-1,-1,-1,-1,-1,-1,-1,-1],"loss_changes":[5.0993605E0,5.1484747E0,2.705464E0,4.623708E0,3.2973452E0,2.9974604E0,1.4676286E0,5.025718E0,6.1904526E-1,8.8266444E-1,3.3740964E0,1.9152899E0,0E0,0E0,1.253752E0,0E0,0E0,0E0,0E0,0E0,0E0,0E0,0E0,0E0,0E0,0E0,0E0],"parents":[2147483647,0,0,1,1,2,2,3,3,4,4,5,5,6,6,7,7,8,8,9,9,10,10,11,11,14,14],"right_children":[2,4,6,8,10,12,14,16,18,20,22,24,-1,-1,26,-1,-1,-1,-1,-1,-1,-1,-1,-1,-1,-1,-1],"split_conditions":[8.1671363E-1,1.017901E0,-1.5897858E-1,2.0714834E0,-1.3389497E0,1.9888374E0,-7.983199E-1,-1.1987286E0,-7.954911E-1,-1.6808873E-2,-1.5045334E-1,-5.940605E-1,-1.84794E-1,1.6471015E-1,4.346381E0,6.2402003E-2,-6.8621516E-2,2.6445264E-1,3.7432536E-2,1.643271E-2,-2.603155E-1,1.3982284E-1,-4.1643273E-2,2.4603055E-1,9.231245E-2,-1.5042211E-1,7.9511926E-2],"split_indices":[28,19,32,25,0,5,6,30,32,1,31,15,0,0,28,0,0,0,0,0,0,0,0,0,0,0,0],"split_type":[0,0,0,0,0,0,0,0,0,0,0,0,0,0,0,0,0,0,0,0,0,0,0,0,0,0,0],"sum_hessian":[2.9798087E2,2.4962166E2,4.83592E1,2.0089255E2,4.872911E1,3.7746994E1,1.0612203E1,1.9521007E2,5.6824794E0,3.6389205E0,4.509019E1,3.5914875E1,1.8321204E0,1.5441297E0,9.068073E0,3.0517962E1,1.6469211E2,3.8062046E0,1.8762747E0,1.3504479E0,2.2884727E0,3.2960934E1,1.2129257E1,1.0865213E1,2.5049662E1,6.855977E0,2.2120962E0],"tree_param":{"num_deleted":"0","num_feature":"33","num_nodes":"27","size_leaf_vector":"1"}},{"base_weights":[-1.1238946E-3,2.6602233E-2,-6.304703E-1,-3.5329204E-2,3.047798E-1,-2.9297554E-1,-8.2200384E-1,9.0526134E-2,-3.2258922E-1,-6.1614625E-2,4.6565285E-1,3.9783992E-2,-1.9724266E-1,-2.798551E-1,-6.454955E-2,6.524461E-3,1.9579898E-1,1.1931502E-2,-1.3967106E-1,4.591454E-2,-1.9844861E-1,2.0504813E-1,-3.3232328E-3,-1.1330305E-1,1.300021E-1],"categories":[],"categories_nodes":[],"categories_segments":[],"categories_sizes":[],"default_left":[0,0,0,0,0,0,0,0,0,0,0,0,0,0,0,0,0,0,0,0,0,0,0,0,0],"id":35,"left_children":[1,3,5,7,9,11,13,15,17,19,21,23,-1,-1,-1,-1,-1,-1,-1,-1,-1,-1,-1,-1,-1],"loss_changes":[5.1475773E0,4.8792486E0,5.6382704E-1,8.417842E0,3.067903E0,7.6124597E-1,2.9620314E-1,6.253917E0,3.6922584E0,2.2407978E0,3.7407007E0,8.391028E-1,0E0,0E0,0E0,0E0,0E0,0E0,0E0,0E0,0E0,0E0,0E0,0E0,0E0],"parents":[2147483647,0,0,1,1,2,2,3,3,4,4,5,5,6,6,7,7,8,8,9,9,10,10,11,11],"right_children":[2,4,6,8,10,12,14,16,18,20,22,24,-1,-1,-1,-1,-1,-1,-1,-1,-1,-1,-1,-1,-1],"split_conditions":[4.280616E0,1.4917719E0,-7.919236E-1,7.8418416E-1,-4.7684544E-1,-5.014242E-1,1.1962965E0,7.659637E-2,-7.5355345E-1,-9.828104E-2,8.8632107E-1,-1.12658635E-1,-1.9724266E-1,-2.798551E-1,-6.454955E-2,6.524461E-3,1.9579898E-1,1.1931502E-2,-1.3967106E-1,4.591454E-2,-1.9844861E-1,2.0504813E-1,-3.3232328E-3,-1.1330305E-1,1.300021E-1],"split_indices":[16,4,32,4,5,31,5,4,30,6,0,23,0,0,0,0,0,0,0,0,0,0,0,0,0],"split_type":[0,0,0,0,0,0,0,0,0,0,0,0,0,0,0,0,0,0,0,0,0,0,0,0,0],"sum_hessian":[2.9304013E2,2.815922E2,1.1447935E1,2.3103027E2,5.0561905E1,5.0605483E0,6.387387E0,1.6112326E2,6.990701E1,1.56150465E1,3.494686E1,3.1111596E0,1.9493889E0,4.946601E0,1.440786E0,1.4448419E2,1.6639072E1,1.9983662E1,4.992335E1,1.2048458E1,3.5665877E0,2.3688665E1,1.1258196E1,1.5293092E0,1.5818505E0],"tree_param":{"num_deleted":"0","num_feature":"33","num_nodes":"25","size_leaf_vector":"1"}},{"base_weights":[-3.0053314E-3,4.9013674E-1,-3.7575863E-2,7.634314E-1,-2.458285E-1,-1.5300654E-1,1.2400968E-1,-4.8414107E-2,8.912758E-1,-2.0814937E-1,2.3677397E-1,2.653961E-1,-2.1911122E-1,1.6679022E-1,-5.8343154E-1,1.439367E-1,3.3241862E-1,-7.083917E-2,1.8424237E-1,1.4047155E-1,-9.907688E-2,-1.9506523E-1,-4.3299384E-2,6.0910378E-2,-1.9247946E-1,3.7733085E-2,-2.6603776E-1],"categories":[],"categories_nodes":[],"categories_segments":[],"categories_sizes":[],"default_left":[0,0,0,0,0,0,0,0,0,0,0,0,0,0,0,0,0,0,0,0,0,0,0,0,0,0,0],"id":36,"left_children":[1,3,5,7,9,11,13,-1,15,-1,17,19,21,23,25,-1,-1,-1,-1,-1,-1,-1,-1,-1,-1,-1,-1],"loss_changes":[4.9817166E0,4.0380907E0,5.110768E0,1.8231068E0,1.4485992E0,4.4747725E0,3.5567324E0,0E0,5.9515667E-1,0E0,7.884057E-1,2.8416495E0,4.3693776E0,3.3111665E0,1.5617216E0,0E0,0E0,0E0,0E0,0E0,0E0,0E0,0E0,0E0,0E0,0E0,0E0],"parents":[2147483647,0,0,1,1,2,2,3,3,4,4,5,5,6,6,8,8,10,10,11,11,12,12,13,13,14,14],"right_children":[2,4,6,8,10,12,14,-1,16,-1,18,20,22,24,26,-1,-1,-1,-1,-1,-1,-1,-1,-1,-1,-1,-1],"split_conditions":[-1.4676247E0,1.2826334E0,4.8904264E-1,-4.367669E-1,4.617145E-1,-8.50949E-1,3.179829E0,-4.8414107E-2,-3.3597693E-1,-2.0814937E-1,-1.9921423E0,6.343502E-1,-9.1714597E-1,4.280616E0,-3.0618766E-3,1.439367E-1,3.3241862E-1,-7.083917E-2,1.8424237E-1,1.4047155E-1,-9.907688E-2,-1.9506523E-1,-4.3299384E-2,6.0910378E-2,-1.9247946E-1,3.7733085E-2,-2.6603776E-1],"split_indices":[2,30,20,25,10,32,3,0,23,0,2,30,5,16,14,0,0,0,0,0,0,0,0,0,0,0,0],"split_type":[0,0,0,0,0,0,0,0,0,0,0,0,0,0,0,0,0,0,0,0,0,0,0,0,0,0,0],"sum_hessian":[2.901336E2,1.8143414E1,2.719902E2,1.3203195E1,4.940218E0,1.586848E2,1.13305405E2,1.5716614E0,1.1631534E1,2.3349674E0,2.6052508E0,2.1239134E1,1.3744566E2,1.0756494E2,5.7404575E0,5.1221857E0,6.5093474E0,1.322369E0,1.2828817E0,1.6003304E1,5.2358303E0,1.9179693E1,1.1826597E2,1.0366589E2,3.8990536E0,1.8951931E0,3.8452642E0],"tree_param":{"num_deleted":"0","num_feature":"33","num_nodes":"27","size_leaf_vector":"1"}},{"base_weights":[-3.2481893E-3,7.5596444E-2,-2.3227918E-1,6.805008E-1,3.9770175E-2,-3.020048E-1,4.1184115E-1,7.8585577E-1,-5.9786003E-2,-6.68537E-2,2.846344E-1,-4.2070433E-1,1.5763234E-1,6.3921416E-1,-1.1877104E-1,2.821351E-1,3.8579665E-2,1.6985169E-1,-3.1216765E-2,1.22454636E-1,-1.307144E-1,-3.7274674E-2,-1.8612364E-1,9.408418E-2,-1.8006626E-1,2.8224643E-2,2.3305057E-1],"categories":[],"categories_nodes":[],"categories_segments":[],"categories_sizes":[],"default_left":[0,0,0,0,0,0,0,0,0,0,0,0,0,0,0,0,0,0,0,0,0,0,0,0,0,0,0],"id":37,"left_children":[1,3,5,7,9,11,13,15,-1,17,19,21,23,25,-1,-1,-1,-1,-1,-1,-1,-1,-1,-1,-1,-1,-1],"loss_changes":[5.2011824E0,4.617083E0,3.4369965E0,1.2615051E0,5.328883E0,3.728897E0,1.6539288E0,9.81287E-1,0E0,3.4146094E0,5.685434E0,3.0977764E0,1.9029613E0,4.021399E-1,0E0,0E0,0E0,0E0,0E0,0E0,0E0,0E0,0E0,0E0,0E0,0E0,0E0],"parents":[2147483647,0,0,1,1,2,2,3,3,4,4,5,5,6,6,7,7,9,9,10,10,11,11,12,12,13,13],"right_children":[2,4,6,8,10,12,14,16,-1,18,20,22,24,26,-1,-1,-1,-1,-1,-1,-1,-1,-1,-1,-1,-1,-1],"split_conditions":[-4.1339248E-1,-1.3946418E0,2.5982306E0,4.280616E0,4.1468274E-2,2.8640184E-1,7.742958E-1,1.4269357E0,-5.9786003E-2,-1.7395967E0,1.0966839E0,-5.2783364E-1,1.6452159E-1,-4.6652704E-1,-1.1877104E-1,2.821351E-1,3.8579665E-2,1.6985169E-1,-3.1216765E-2,1.22454636E-1,-1.307144E-1,-3.7274674E-2,-1.8612364E-1,9.408418E-2,-1.8006626E-1,2.8224643E-2,2.3305057E-1],"split_indices":[32,30,23,16,11,25,32,2,0,2,2,6,30,20,0,0,0,0,0,0,0,0,0,0,0,0,0],"split_type":[0,0,0,0,0,0,0,0,0,0,0,0,0,0,0,0,0,0,0,0,0,0,0,0,0,0,0],"sum_hessian":[2.8605624E2,2.1329774E2,7.2758484E1,1.0920327E1,2.0237743E2,6.613098E1,6.627502E0,9.847814E0,1.0725135E0,1.414927E2,6.0884716E1,5.2625385E1,1.3505601E1,5.3345237E0,1.2929784E0,7.623747E0,2.2240665E0,7.06456E0,1.3442815E2,5.234102E1,8.543698E0,2.183486E1,3.0790524E1,1.1686469E1,1.8191315E0,1.4146343E0,3.9198892E0],"tree_param":{"num_deleted":"0","num_feature":"33","num_nodes":"27","size_leaf_vector":"1"}},{"base_weights":[-2.0042176E-3,7.567234E-2,-1.8676865E-1,1.722064E-1,-1.3245325E-1,-4.4652176E-1,-3.561623E-3,-5.0722852E-2,3.1667006E-1,1.0577172E-1,-3.9099994E-1,5.1261008E-2,-6.757984E-1,9.524028E-2,-7.8818506E-1,1.04519926E-1,-5.9376862E-2,2.7066251E-2,1.68013E-1,8.384847E-2,-1.5494835E-1,1.8996304E-1,-1.3667352E-1,-1.7731464E-1,1.5458079E-1,-2.434584E-1,1.8340674E-1,-7.731708E-2,9.6034504E-2,-5.1627196E-2,-2.80685E-1],"categories":[],"categories_nodes":[],"categories_segments":[],"categories_sizes":[],"default_left":[0,0,0,0,0,0,0,0,0,0,0,0,0,0,0,0,0,0,0,0,0,0,0,0,0,0,0,0,0,0,0],"id":38,"left_children":[1,3,5,7,9,11,13,15,17,19,21,23,25,27,29,-1,-1,-1,-1,-1,-1,-1,-1,-1,-1,-1,-1,-1,-1,-1,-1],"loss_changes":[4.0592747E0,4.0238485E0,3.9820948E0,4.411363E0,3.9626718E0,3.9851995E0,3.9586518E0,3.2724578E0,4.521055E0,3.8114097E0,2.3219147E0,3.8348343E0,4.6487675E0,3.6848924E0,3.5768986E-1,0E0,0E0,0E0,0E0,0E0,0E0,0E0,0E0,0E0,0E0,0E0,0E0,0E0,0E0,0E0,0E0],"parents":[2147483647,0,0,1,1,2,2,3,3,4,4,5,5,6,6,7,7,8,8,9,9,10,10,11,11,12,12,13,13,14,14],"right_children":[2,4,6,8,10,12,14,16,18,20,22,24,26,28,30,-1,-1,-1,-1,-1,-1,-1,-1,-1,-1,-1,-1,-1,-1,-1,-1],"split_conditions":[1.2406509E0,6.0533307E-2,-3.8895634E-1,-1.973218E-1,-3.6030963E-1,-8.1539935E-1,6.6010654E-1,-5.420805E-1,-5.307689E-1,-4.766959E-1,-9.577598E-1,-5.0058377E-1,1.6051998E0,-2.1266514E-1,-1.0382164E-2,1.04519926E-1,-5.9376862E-2,2.7066251E-2,1.68013E-1,8.384847E-2,-1.5494835E-1,1.8996304E-1,-1.3667352E-1,-1.7731464E-1,1.5458079E-1,-2.434584E-1,1.8340674E-1,-7.731708E-2,9.6034504E-2,-5.1627196E-2,-2.80685E-1],"split_indices":[10,30,28,19,2,6,6,24,29,32,32,21,25,5,27,0,0,0,0,0,0,0,0,0,0,0,0,0,0,0,0],"split_type":[0,0,0,0,0,0,0,0,0,0,0,0,0,0,0,0,0,0,0,0,0,0,0,0,0,0,0,0,0,0,0],"sum_hessian":[2.808547E2,1.9814378E2,8.2710915E1,1.354781E2,6.2665688E1,3.361455E1,4.9096367E1,5.3526897E1,8.195121E1,3.292213E1,2.9743555E1,1.0845121E1,2.276943E1,4.4385803E1,4.710563E0,1.4053895E1,3.9473003E1,4.316168E1,3.8789528E1,2.616756E1,6.7545695E0,1.2418957E0,2.850166E1,4.433793E0,6.4113283E0,2.0931713E1,1.8377178E0,1.7216566E1,2.7169237E1,1.3280597E0,3.3825037E0],"tree_param":{"num_deleted":"0","num_feature":"33","num_nodes":"31","size_leaf_vector":"1"}},{"base_weights":[-3.3165193E-3,-4.195065E-2,3.724117E-1,-1.1465025E-1,1.9155915E-1,4.4935557E-1,-1.4339106E-1,-5.280931E-2,-5.702832E-1,7.250274E-1,6.031937E-2,5.5327994E-1,-1.9954625E-1,-2.245089E-3,-1.9395712E-1,-4.602416E-2,-2.5732204E-1,2.566506E-1,4.0332004E-3,-1.7527672E-2,1.5154496E-1,-9.692851E-3,1.9891696E-1,-1.9651833E-1,1.5924703E-1],"categories":[],"categories_nodes":[],"categories_segments":[],"categories_sizes":[],"default_left":[0,0,0,0,0,0,0,0,0,0,0,0,0,0,0,0,0,0,0,0,0,0,0,0,0],"id":39,"left_children":[1,3,5,7,9,11,-1,13,15,17,19,21,23,-1,-1,-1,-1,-1,-1,-1,-1,-1,-1,-1,-1],"loss_changes":[4.0406604E0,4.305526E0,1.9130268E0,5.409341E0,4.1767435E0,1.7502227E0,0E0,4.598995E0,2.6207342E0,1.0851026E0,2.6426218E0,1.3858314E0,1.7090101E0,0E0,0E0,0E0,0E0,0E0,0E0,0E0,0E0,0E0,0E0,0E0,0E0],"parents":[2147483647,0,0,1,1,2,2,3,3,4,4,5,5,7,7,8,8,9,9,10,10,11,11,12,12],"right_children":[2,4,6,8,10,12,-1,14,16,18,20,22,24,-1,-1,-1,-1,-1,-1,-1,-1,-1,-1,-1,-1],"split_conditions":[1.4965465E0,8.1638074E-1,7.742958E-1,4.449415E-1,-5.978069E-1,7.8306484E-1,-1.4339106E-1,2.9958408E0,-1.1179463E0,4.280616E0,8.473813E-1,-5.932216E-1,-3.1620628E-1,-2.245089E-3,-1.9395712E-1,-4.602416E-2,-2.5732204E-1,2.566506E-1,4.0332004E-3,-1.7527672E-2,1.5154496E-1,-9.692851E-3,1.9891696E-1,-1.9651833E-1,1.5924703E-1],"split_indices":[28,25,32,30,30,22,0,18,2,16,20,21,24,0,0,0,0,0,0,0,0,0,0,0,0],"split_type":[0,0,0,0,0,0,0,0,0,0,0,0,0,0,0,0,0,0,0,0,0,0,0,0,0],"sum_hessian":[2.762841E2,2.5132956E2,2.495453E1,1.9204758E2,5.9281975E1,2.3316408E1,1.638121E0,1.7007939E2,2.1968182E1,1.0811312E1,4.8470665E1,2.0224699E1,3.0917103E0,1.5895683E2,1.1122566E1,9.591828E0,1.2376353E1,8.965216E0,1.8460957E0,3.894356E1,9.527103E0,3.3042526E0,1.6920446E1,1.9676452E0,1.1240652E0],"tree_param":{"num_deleted":"0","num_feature":"33","num_nodes":"25","size_leaf_vector":"1"}},{"base_weights":[-2.984473E-3,-4.795796E-1,2.9157562E-2,-6.309821E-1,1.7600892E-1,-2.517397E-1,8.361761E-2,-8.1581235E-1,-1.7193295E-1,-7.164255E-2,1.6294245E-1,3.6496565E-1,-4.255985E-1,4.0568426E-1,2.9507536E-2,2.154401E-2,-2.815384E-1,5.047665E-2,-1.9632705E-1,1.9814761E-1,-1.0292522E-1,-1.7399126E-1,8.648607E-2,1.6526483E-1,-8.830447E-2,-2.066881E-2,7.561335E-2],"categories":[],"categories_nodes":[],"categories_segments":[],"categories_sizes":[],"default_left":[0,0,0,0,0,0,0,0,0,0,0,0,0,0,0,0,0,0,0,0,0,0,0,0,0,0,0],"id":40,"left_children":[1,3,5,7,9,11,13,15,17,-1,-1,19,21,23,25,-1,-1,-1,-1,-1,-1,-1,-1,-1,-1,-1,-1],"loss_changes":[4.173662E0,1.8196158E0,3.9269838E0,1.0647197E0,7.406077E-1,4.627802E0,3.7281413E0,1.1406174E0,9.87231E-1,0E0,0E0,2.2587729E0,3.8040867E0,3.2919931E0,4.0646996E0,0E0,0E0,0E0,0E0,0E0,0E0,0E0,0E0,0E0,0E0,0E0,0E0],"parents":[2147483647,0,0,1,1,2,2,3,3,4,4,5,5,6,6,7,7,8,8,11,11,12,12,13,13,14,14],"right_children":[2,4,6,8,10,12,14,16,18,-1,-1,20,22,24,26,-1,-1,-1,-1,-1,-1,-1,-1,-1,-1,-1,-1],"split_conditions":[-6.210977E-1,1.5640585E0,-1.0637581E0,1.3211921E0,6.6047966E-1,-6.445194E-1,-9.6215093E-1,-9.43107E-1,4.2874154E-1,-7.164255E-2,1.6294245E-1,2.6325956E-1,1.0313736E0,1.2174942E0,1.0836904E-1,2.154401E-2,-2.815384E-1,5.047665E-2,-1.9632705E-1,1.9814761E-1,-1.0292522E-1,-1.7399126E-1,8.648607E-2,1.6526483E-1,-8.830447E-2,-2.066881E-2,7.561335E-2],"split_indices":[25,20,20,28,23,17,6,2,32,0,0,30,15,7,28,0,0,0,0,0,0,0,0,0,0,0,0],"split_type":[0,0,0,0,0,0,0,0,0,0,0,0,0,0,0,0,0,0,0,0,0,0,0,0,0,0,0],"sum_hessian":[2.7054187E2,1.621334E1,2.5432854E2,1.3201988E1,3.011352E0,4.0713184E1,2.1361534E2,8.858178E0,4.34381E0,1.5779648E0,1.4333873E0,8.7118025E0,3.2001385E1,2.9792295E1,1.8382306E2,1.1257153E0,7.732463E0,2.9295537E0,1.4142566E0,6.1937976E0,2.5180051E0,2.6465916E1,5.5354686E0,2.4850868E1,4.941427E0,1.2793979E2,5.5883266E1],"tree_param":{"num_deleted":"0","num_feature":"33","num_nodes":"27","size_leaf_vector":"1"}},{"base_weights":[-3.7408874E-3,8.60887E-2,-1.5597695E-1,-1.8488446E-1,1.6096868E-1,5.603716E-2,-3.1056386E-1,-2.638199E-1,4.9147728E-1,-6.982398E-1,2.0218123E-1,-8.542769E-2,4.8498407E-1,1.4759807E-1,-4.2275047E-1,-1.362982E-1,4.81791E-2,2.7560505E-1,-1.0733761E-1,3.2421395E-2,-2.6155165E-1,4.026261E-2,2.4797423E-1,-1.20665915E-1,5.0025027E-2,2.0585817E-1,-1.5517505E-1,2.1056814E-1,-7.692039E-2,-2.0089407E-1,-6.0732808E-2],"categories":[],"categories_nodes":[],"categories_segments":[],"categories_sizes":[],"default_left":[0,0,0,0,0,0,0,0,0,0,0,0,0,0,0,0,0,0,0,0,0,0,0,0,0,0,0,0,0,0,0],"id":41,"left_children":[1,3,5,7,9,11,13,15,17,19,21,23,25,27,29,-1,-1,-1,-1,-1,-1,-1,-1,-1,-1,-1,-1,-1,-1,-1,-1],"loss_changes":[3.6759648E0,3.4604366E0,3.286442E0,2.1089072E0,4.8509374E0,2.6450305E0,3.0351787E0,2.8097725E0,1.861103E0,9.7777843E-1,5.3086467E0,2.7126098E0,2.5309913E0,2.893519E0,2.405632E0,0E0,0E0,0E0,0E0,0E0,0E0,0E0,0E0,0E0,0E0,0E0,0E0,0E0,0E0,0E0,0E0],"parents":[2147483647,0,0,1,1,2,2,3,3,4,4,5,5,6,6,7,7,8,8,9,9,10,10,11,11,12,12,13,13,14,14],"right_children":[2,4,6,8,10,12,14,16,18,20,22,24,26,28,30,-1,-1,-1,-1,-1,-1,-1,-1,-1,-1,-1,-1,-1,-1,-1,-1],"split_conditions":[-5.279372E-1,-7.4102575E-1,-8.934907E-1,1.2227253E0,-1.6150817E0,8.148187E-1,-1.0402399E0,-1.7765317E-2,1.2064155E0,-8.723539E-1,8.03043E-1,-3.98032E-1,1.636597E0,-4.889454E-2,-3.2063884E-1,-1.362982E-1,4.81791E-2,2.7560505E-1,-1.0733761E-1,3.2421395E-2,-2.6155165E-1,4.026261E-2,2.4797423E-1,-1.20665915E-1,5.0025027E-2,2.0585817E-1,-1.5517505E-1,2.1056814E-1,-7.692039E-2,-2.0089407E-1,-6.0732808E-2],"split_indices":[32,5,30,29,19,12,2,11,30,32,11,21,5,30,22,0,0,0,0,0,0,0,0,0,0,0,0,0,0,0,0],"split_type":[0,0,0,0,0,0,0,0,0,0,0,0,0,0,0,0,0,0,0,0,0,0,0,0,0,0,0,0,0,0,0],"sum_hessian":[2.6682126E2,1.6807823E2,9.8743034E1,3.607222E1,1.3200601E2,4.1906403E1,5.683663E1,3.284854E1,3.223678E0,5.3122673E0,1.2669375E2,3.2115646E1,9.790758E0,1.1117581E1,4.5719048E1,2.2623217E1,1.0225325E1,2.0904098E0,1.1332685E0,1.0079819E0,4.3042855E0,1.1535145E2,1.1342295E1,1.39705305E1,1.8145115E1,8.416406E0,1.3743526E0,4.3761067E0,6.7414746E0,2.0596827E1,2.5122223E1],"tree_param":{"num_deleted":"0","num_feature":"33","num_nodes":"31","size_leaf_vector":"1"}},{"base_weights":[-3.6503347E-3,-6.0013037E-2,2.4709924E-1,4.981083E-2,-3.179193E-1,3.8949466E-1,-2.7567787E-2,-2.0704399E-1,1.8059343E-1,-3.6427975E-1,6.2296003E-1,9.5174745E-2,6.209711E-1,4.163789E-1,-3.604264E-1,-1.0323815E-1,6.5710604E-2,1.1647589E-1,-2.0452298E-2,1.06655255E-1,-1.2543537E-1,3.0019311E-2,2.4056481E-1,9.7964816E-2,-2.0051438E-1,2.424215E-1,-2.4530048E-2,1.7372653E-1,-9.8453894E-2,-2.0166826E-1,1.544874E-2],"categories":[],"categories_nodes":[],"categories_segments":[],"categories_sizes":[],"default_left":[0,0,0,0,0,0,0,0,0,0,0,0,0,0,0,0,0,0,0,0,0,0,0,0,0,0,0,0,0,0,0],"id":42,"left_children":[1,3,5,7,9,11,13,15,17,19,21,23,25,27,29,-1,-1,-1,-1,-1,-1,-1,-1,-1,-1,-1,-1,-1,-1,-1,-1],"loss_changes":[3.737691E0,6.130439E0,1.9091649E0,5.152475E0,3.0451183E0,2.1232295E0,2.7370112E0,3.1032276E0,5.266285E0,2.5592632E0,2.3813522E-1,2.9182854E0,2.3998427E0,1.1550267E0,1.3884717E0,0E0,0E0,0E0,0E0,0E0,0E0,0E0,0E0,0E0,0E0,0E0,0E0,0E0,0E0,0E0,0E0],"parents":[2147483647,0,0,1,1,2,2,3,3,4,4,5,5,6,6,7,7,8,8,9,9,10,10,11,11,12,12,13,13,14,14],"right_children":[2,4,6,8,10,12,14,16,18,20,22,24,26,28,30,-1,-1,-1,-1,-1,-1,-1,-1,-1,-1,-1,-1,-1,-1,-1,-1],"split_conditions":[1.4917719E0,7.8418416E-1,4.410163E-1,-6.309914E-1,2.2466102E0,1.3070402E-1,-5.8061147E-1,3.4758016E-1,5.1388645E-1,-1.768438E0,-2.5233722E-1,8.8632107E-1,1.0189775E0,4.5279083E-1,1.657282E-1,-1.0323815E-1,6.5710604E-2,1.1647589E-1,-2.0452298E-2,1.06655255E-1,-1.2543537E-1,3.0019311E-2,2.4056481E-1,9.7964816E-2,-2.0051438E-1,2.424215E-1,-2.4530048E-2,1.7372653E-1,-9.8453894E-2,-2.0166826E-1,1.544874E-2],"split_indices":[4,4,27,4,27,20,6,23,2,26,28,0,2,24,1,0,0,0,0,0,0,0,0,0,0,0,0,0,0,0,0],"split_type":[0,0,0,0,0,0,0,0,0,0,0,0,0,0,0,0,0,0,0,0,0,0,0,0,0,0,0,0,0,0,0],"sum_hessian":[2.6241766E2,2.148786E2,4.7539074E1,1.5127026E2,6.360834E1,3.1032736E1,1.6506336E1,5.083941E1,1.00430855E2,6.1205368E1,2.402973E0,1.4283094E1,1.6749641E1,6.9653955E0,9.540941E0,3.8609768E1,1.2229639E1,5.443249E1,4.5998367E1,3.8693955E0,5.733597E1,1.0101379E0,1.3928349E0,1.14007435E1,2.8823512E0,1.310943E1,3.6402113E0,5.8986044E0,1.0667915E0,5.0707507E0,4.4701905E0],"tree_param":{"num_deleted":"0","num_feature":"33","num_nodes":"31","size_leaf_vector":"1"}},{"base_weights":[-1.9496718E-3,3.5237953E-2,-3.8812125E-1,6.6797875E-2,-4.607754E-1,1.1274078E-1,-4.642312E-1,2.6038712E-2,4.7213975E-1,-6.2730986E-1,2.7186698E-1,-9.076623E-2,-6.569921E-1,-6.676168E-2,2.8963674E-2,2.5938487E-1,5.3297244E-2,-2.6119134E-1,-4.6219133E-2,1.8111533E-1,-6.3933924E-2,-9.591542E-2,2.1795778E-1,5.4854546E-2,-2.360516E-1],"categories":[],"categories_nodes":[],"categories_segments":[],"categories_sizes":[],"default_left":[0,0,0,0,0,0,0,0,0,0,0,0,0,0,0,0,0,0,0,0,0,0,0,0,0],"id":43,"left_children":[1,3,5,7,9,-1,11,13,15,17,19,21,23,-1,-1,-1,-1,-1,-1,-1,-1,-1,-1,-1,-1],"loss_changes":[3.758491E0,3.768637E0,1.5110781E0,3.7110844E0,1.9287739E0,0E0,1.4775796E0,3.6290236E0,2.2195292E0,1.2527719E0,6.7048174E-1,1.8096399E0,1.6622539E0,0E0,0E0,0E0,0E0,0E0,0E0,0E0,0E0,0E0,0E0,0E0,0E0],"parents":[2147483647,0,0,1,1,2,2,3,3,4,4,6,6,7,7,8,8,9,9,10,10,11,11,12,12],"right_children":[2,4,6,8,10,-1,12,14,16,18,20,22,24,-1,-1,-1,-1,-1,-1,-1,-1,-1,-1,-1,-1],"split_conditions":[2.9958408E0,3.179829E0,-1.4481981E0,1.3920271E0,1.1257516E0,1.1274078E-1,-4.3485865E-1,-8.248657E-1,-4.8525554E-1,6.128267E-1,4.8904264E-1,-5.6467736E-1,-8.993542E-1,-6.676168E-2,2.8963674E-2,2.5938487E-1,5.3297244E-2,-2.6119134E-1,-4.6219133E-2,1.8111533E-1,-6.3933924E-2,-9.591542E-2,2.1795778E-1,5.4854546E-2,-2.360516E-1],"split_indices":[18,3,2,3,25,0,29,20,24,19,20,29,32,0,0,0,0,0,0,0,0,0,0,0,0],"split_type":[0,0,0,0,0,0,0,0,0,0,0,0,0,0,0,0,0,0,0,0,0,0,0,0,0],"sum_hessian":[2.5976636E2,2.3777756E2,2.1988798E1,2.2436705E2,1.3410509E1,1.6354976E0,2.03533E1,2.0483418E2,1.953287E1,1.1043923E1,2.3665857E0,7.4296284E0,1.2923672E1,4.478495E1,1.6004922E2,7.54332E0,1.1989549E1,6.739153E0,4.30477E0,1.2597579E0,1.1068277E0,6.2793684E0,1.1502603E0,1.6758935E0,1.1247779E1],"tree_param":{"num_deleted":"0","num_feature":"33","num_nodes":"25","size_leaf_vector":"1"}},{"base_weights":[-1.4731004E-3,1.7814176E-1,-7.741975E-2,-8.0914006E-2,3.5783234E-1,5.4559197E-2,-2.4760279E-1,-5.596322E-1,8.038687E-2,1.3807198E-1,5.5710894E-1,2.3188747E-1,-1.721118E-1,-3.5099632E-1,1.9434215E-1,-4.453159E-2,-2.4097313E-1,-1.2057304E-1,6.119904E-2,-4.7961235E-2,1.24600865E-1,1.8968579E-1,-7.5308405E-2,-1.8555563E-2,1.2199362E-1,7.005283E-2,-1.070059E-1,3.3214472E-2,-1.4831327E-1,9.316834E-2,-1.5836053E-1],"categories":[],"categories_nodes":[],"categories_segments":[],"categories_sizes":[],"default_left":[0,0,0,0,0,0,0,0,0,0,0,0,0,0,0,0,0,0,0,0,0,0,0,0,0,0,0,0,0,0,0],"id":44,"left_children":[1,3,5,7,9,11,13,15,17,19,21,23,25,27,29,-1,-1,-1,-1,-1,-1,-1,-1,-1,-1,-1,-1,-1,-1,-1,-1],"loss_changes":[3.5337632E0,3.612659E0,4.1025558E0,2.5426457E0,1.9218254E0,4.1943126E0,3.7099838E0,7.0993996E-1,1.5764694E0,1.969238E0,1.5928864E0,3.0238152E0,3.5227056E0,4.35411E0,1.4862496E0,0E0,0E0,0E0,0E0,0E0,0E0,0E0,0E0,0E0,0E0,0E0,0E0,0E0,0E0,0E0,0E0],"parents":[2147483647,0,0,1,1,2,2,3,3,4,4,5,5,6,6,7,7,8,8,9,9,10,10,11,11,12,12,13,13,14,14],"right_children":[2,4,6,8,10,12,14,16,18,20,22,24,26,28,30,-1,-1,-1,-1,-1,-1,-1,-1,-1,-1,-1,-1,-1,-1,-1,-1],"split_conditions":[-7.4405515E-1,-1.0758108E-1,-4.2577934E-1,-4.617806E-1,-2.2763462E-1,7.275788E-1,1.1054041E0,-4.889454E-2,-8.049332E-1,-1.9419436E-1,1.2441748E0,-2.2763462E-1,-1.3946418E0,-8.831343E-1,7.8306484E-1,-4.453159E-2,-2.4097313E-1,-1.2057304E-1,6.119904E-2,-4.7961235E-2,1.24600865E-1,1.8968579E-1,-7.5308405E-2,-1.8555563E-2,1.2199362E-1,7.005283E-2,-1.070059E-1,3.3214472E-2,-1.4831327E-1,9.316834E-2,-1.5836053E-1],"split_indices":[32,26,30,27,20,2,28,30,19,15,24,20,30,12,22,0,0,0,0,0,0,0,0,0,0,0,0,0,0,0,0],"split_type":[0,0,0,0,0,0,0,0,0,0,0,0,0,0,0,0,0,0,0,0,0,0,0,0,0,0,0,0,0,0,0],"sum_hessian":[2.5704074E2,7.598636E1,1.8105438E2,3.1345694E1,4.4640663E1,1.0235573E2,7.869866E1,7.277528E0,2.4068165E1,2.2034306E1,2.2606356E1,5.7415592E1,4.4940136E1,6.394455E1,1.4754107E1,3.306236E0,3.9712915E0,4.4507895E0,1.9617376E1,1.0825178E1,1.1209127E1,2.0881456E1,1.7248992E0,2.1658045E1,3.575755E1,1.3971415E1,3.096872E1,1.5206129E1,4.8738422E1,1.3199943E1,1.5541649E0],"tree_param":{"num_deleted":"0","num_feature":"33","num_nodes":"31","size_leaf_vector":"1"}},{"base_weights":[-2.723802E-3,-1.9636087E-1,6.559644E-2,-6.959748E-2,-5.2270496E-1,9.5040366E-2,-5.250374E-1,-2.596485E-1,1.922915E-1,-8.132639E-1,3.0560242E-2,1.2136239E-1,-5.373359E-1,-6.966537E-1,-1.6447257E-1,2.1112157E-1,-1.04236245E-1,-2.7831085E-2,1.5014023E-1,7.645525E-2,-2.7986613E-1,-2.0176356E-1,1.2054712E-1,2.298794E-1,2.818885E-2,-2.1156119E-1,3.59649E-2,-5.9623E-2,-2.3426633E-1,7.151721E-2,-1.387609E-1],"categories":[],"categories_nodes":[],"categories_segments":[],"categories_sizes":[],"default_left":[0,0,0,0,0,0,0,0,0,0,0,0,0,0,0,0,0,0,0,0,0,0,0,0,0,0,0,0,0,0,0],"id":45,"left_children":[1,3,5,7,9,11,13,15,17,19,21,23,25,27,29,-1,-1,-1,-1,-1,-1,-1,-1,-1,-1,-1,-1,-1,-1,-1,-1],"loss_changes":[3.3566766E0,2.7010128E0,3.312117E0,2.4794257E0,2.9761243E0,3.0534768E0,4.4607997E-1,2.6732106E0,1.9001503E0,1.780374E0,2.1719897E0,2.9878588E0,8.9634013E-1,8.9307785E-2,6.1830604E-1,0E0,0E0,0E0,0E0,0E0,0E0,0E0,0E0,0E0,0E0,0E0,0E0,0E0,0E0,0E0,0E0],"parents":[2147483647,0,0,1,1,2,2,3,3,4,4,5,5,6,6,7,7,8,8,9,9,10,10,11,11,12,12,13,13,14,14],"right_children":[2,4,6,8,10,12,14,16,18,20,22,24,26,28,30,-1,-1,-1,-1,-1,-1,-1,-1,-1,-1,-1,-1,-1,-1,-1,-1],"split_conditions":[-1.6926573E-1,-2.3658164E-1,4.280616E0,8.7602174E-1,1.1054041E0,1.3600556E0,9.570856E-1,-1.9018719E0,-2.2636402E-2,-1.7012013E0,-3.4708083E-1,-1.7007436E0,1.6557801E0,-5.130717E-1,-4.1868624E-1,2.1112157E-1,-1.04236245E-1,-2.7831085E-2,1.5014023E-1,7.645525E-2,-2.7986613E-1,-2.0176356E-1,1.2054712E-1,2.298794E-1,2.818885E-2,-2.1156119E-1,3.59649E-2,-5.9623E-2,-2.3426633E-1,7.151721E-2,-1.387609E-1],"split_indices":[25,30,16,17,28,30,1,30,28,26,20,2,25,12,6,0,0,0,0,0,0,0,0,0,0,0,0,0,0,0,0],"split_type":[0,0,0,0,0,0,0,0,0,0,0,0,0,0,0,0,0,0,0,0,0,0,0,0,0,0,0,0,0,0,0],"sum_hessian":[2.5175626E2,6.517095E1,1.865853E2,4.781227E1,1.7358683E1,1.7852469E2,8.060619E0,2.7711084E1,2.0101187E1,1.1073345E1,6.285337E0,1.7216652E2,6.3581724E0,4.829722E0,3.2308974E0,1.7287562E0,2.5982327E1,1.0805293E1,9.295894E0,1.0013999E0,1.0071945E1,1.891561E0,4.393776E0,5.917612E0,1.662489E2,5.006413E0,1.3517596E0,1.184936E0,3.6447861E0,1.4590485E0,1.771849E0],"tree_param":{"num_deleted":"0","num_feature":"33","num_nodes":"31","size_leaf_vector":"1"}},{"base_weights":[-4.9532223E-3,-2.1323144E-2,7.182882E-1,1.6400404E-1,-9.254955E-2,2.8435169E-2,2.53042E-1,5.412981E-1,3.520473E-2,-8.014626E-3,-3.0910018E-1,-1.8642882E-1,1.9939841E-1,1.3554114E-1,-3.1011939E-2,-3.3572268E-2,7.7481985E-2,7.121389E-3,-1.3796178E-1],"categories":[],"categories_nodes":[],"categories_segments":[],"categories_sizes":[],"default_left":[0,0,0,0,0,0,0,0,0,0,0,0,0,0,0,0,0,0,0],"id":46,"left_children":[1,3,5,7,9,-1,-1,11,13,15,17,-1,-1,-1,-1,-1,-1,-1,-1],"loss_changes":[2.950582E0,3.228201E0,3.506074E-1,3.2823753E0,3.2279973E0,0E0,0E0,2.8830824E0,3.0324028E0,3.5686831E0,2.495985E0,0E0,0E0,0E0,0E0,0E0,0E0,0E0,0E0],"parents":[2147483647,0,0,1,1,2,2,3,3,4,4,7,7,8,8,9,9,10,10],"right_children":[2,4,6,8,10,-1,-1,12,14,16,18,-1,-1,-1,-1,-1,-1,-1,-1],"split_conditions":[2.2879837E0,-8.934907E-1,-1.4220967E0,-6.543351E-1,1.2406509E0,2.8435169E-2,2.53042E-1,-6.726004E-1,2.6134092E-1,4.617145E-1,-4.3801594E-1,-1.8642882E-1,1.9939841E-1,1.3554114E-1,-3.1011939E-2,-3.3572268E-2,7.7481985E-2,7.121389E-3,-1.3796178E-1],"split_indices":[25,30,20,32,10,0,0,23,2,10,2,0,0,0,0,0,0,0,0],"split_type":[0,0,0,0,0,0,0,0,0,0,0,0,0,0,0,0,0,0,0],"sum_hessian":[2.4692343E2,2.4240729E2,4.5161552E0,6.693736E1,1.7546991E2,1.0489323E0,3.4672227E0,1.6220303E1,5.071706E1,1.26949585E2,4.852033E1,1.1685979E0,1.5051705E1,1.2095308E1,3.8621754E1,9.173765E1,3.5211937E1,1.5389572E1,3.3130756E1],"tree_param":{"num_deleted":"0","num_feature":"33","num_nodes":"19","size_leaf_vector":"1"}},{"base_weights":[-1.8151365E-3,-2.2803044E-1,4.9226735E-2,-2.4040502E-2,-4.9340996E-1,-5.873196E-1,7.670232E-2,3.023311E-1,-3.243344E-1,-6.614274E-1,1.2457395E-1,-2.5589898E-1,-1.6768642E-1,1.05789416E-1,-4.83478E-1,-8.0857545E-2,1.4577901E-1,-1.4662609E-1,1.2130734E-1,-2.5146383E-1,-5.3173147E-2,2.0137747E-1,-6.1679594E-2,4.7837626E-2,-1.7670146E-1,4.1138887E-2,-1.20208815E-1,-2.0134066E-1,-5.9247087E-3],"categories":[],"categories_nodes":[],"categories_segments":[],"categories_sizes":[],"default_left":[0,0,0,0,0,0,0,0,0,0,0,0,0,0,0,0,0,0,0,0,0,0,0,0,0,0,0,0,0],"id":47,"left_children":[1,3,5,7,9,11,13,15,17,19,21,-1,23,25,27,-1,-1,-1,-1,-1,-1,-1,-1,-1,-1,-1,-1,-1,-1],"loss_changes":[2.8391128E0,2.4385571E0,3.5542927E0,2.7093613E0,2.1197076E0,7.954447E-1,3.199655E0,1.5258086E0,1.917973E0,1.1854916E0,1.0469694E0,0E0,7.1528006E-1,2.983791E0,8.324001E-1,0E0,0E0,0E0,0E0,0E0,0E0,0E0,0E0,0E0,0E0,0E0,0E0,0E0,0E0],"parents":[2147483647,0,0,1,1,2,2,3,3,4,4,5,5,6,6,7,7,8,8,9,9,10,10,12,12,13,13,14,14],"right_children":[2,4,6,8,10,12,14,16,18,20,22,-1,24,26,28,-1,-1,-1,-1,-1,-1,-1,-1,-1,-1,-1,-1,-1,-1],"split_conditions":[-7.398383E-1,4.764854E-2,-7.1109784E-1,1.5610744E-2,1.0611938E0,9.214353E-1,1.913369E0,-6.31695E-1,1.5509664E0,8.911017E-2,-5.203801E-1,-2.5589898E-1,4.2874154E-1,3.179829E0,5.042787E-1,-8.0857545E-2,1.4577901E-1,-1.4662609E-1,1.2130734E-1,-2.5146383E-1,-5.3173147E-2,2.0137747E-1,-6.1679594E-2,4.7837626E-2,-1.7670146E-1,4.1138887E-2,-1.20208815E-1,-2.0134066E-1,-5.9247087E-3],"split_indices":[0,2,25,30,9,23,0,15,29,28,28,0,32,3,26,0,0,0,0,0,0,0,0,0,0,0,0,0,0],"split_type":[0,0,0,0,0,0,0,0,0,0,0,0,0,0,0,0,0,0,0,0,0,0,0,0,0,0,0,0,0],"sum_hessian":[2.4391396E2,4.426517E1,1.9964879E2,2.5643955E1,1.8621214E1,7.417862E0,1.9223093E2,1.2285161E1,1.3358794E1,1.4585431E1,4.035784E0,3.909789E0,3.508073E0,1.8351324E2,8.717686E0,